0.34993374 0.4056622 0.6181181 -0.512958 -0.3230127 -0.027770774 0.018830286 -0.037879832 0.51263016 0.18894164 -0.019253146 -0.31212008 -0.58370197 -0.25287622 0.018532267 -0.23599306 -0.48927018 0.46054357 0.012000633 -0.060639586 0.027582232 0.6317971 0.012744626 -0.027128214 -0.4983831 -0.01838382 0.22428711 -0.4456253 -0.15005451 0.23522776 0.28318083 -0.028988017 -0.24952158 -0.05065369 -0.00417649 0.38696793 0.07976646 0.047393024 -0.21460858 0.0116604455 0.3974311 -0.048067268 -0.0069924635 -0.0019190498 0.293592 0.029295418 -0.49430913 0.43237367 -0.01560528 -0.041668747 0.004328417 0.3432206 -0.026380999 -0.49130663 0.038766798 -0.6321416 0.20602827 -0.01987424 -0.008943536 -0.3421901 0.33527055 -0.2832086 -0.4306031 -0.058731783 
0.607479 -0.04619523 0.35365963 -0.45929447 0.49938866 -0.054547515 0.017088445 -0.018751936 -0.21466471 0.4040924 0.021654636 -0.41070697 -0.88564825 -0.18139322 -0.03338197 -0.10286304 -0.3826213 -0.095382184 0.057590082 0.047194727 -0.52391994 0.19619128 0.013655625 -0.051683873 -0.43877938 -0.0010785484 -0.1664567 0.1310573 -0.76110923 0.21806955 0.41593394 -0.010155071 -0.24655207 0.016211566 -0.052593343 0.17038056 0.13206214 0.02813698 -0.2769469 -0.04373095 0.07464234 -0.035612103 -0.004088498 -0.0293658 -0.30425525 0.040058333 -1.0521007 0.23007329 0.20246 0.032694828 -0.014001681 0.28072906 0.032131527 -0.7691963 -0.0058558723 -0.84382594 0.26848537 0.0069638533 -0.011915439 -0.74113613 0.21109943 -0.65045476 -1.0392557 -0.04372307 
-0.006146591 0.023933176 0.050838467 -0.038105547 -0.015061408 -0.0148905255 -0.012948643 -0.014786746 -0.035391644 0.019260753 0.041085657 -0.024996148 -0.0186111 0.049609836 -0.044898406 0.043063086 0.026739668 -0.039419442 0.003856767 -0.026062924 0.04097395 0.006435897 0.0014583096 -0.009283036 -0.027679872 -0.0056175254 -0.001475051 0.014718812 0.013824578 0.0075404383 0.036247443 -0.02209321 -0.015703555 -0.054525565 0.0132145025 -0.023957815 -0.042361554 0.045600947 -0.030113278 0.03738782 0.0057028085 0.03419463 0.023020942 -0.04443362 0.04030924 0.051244494 -0.003994327 -0.030182458 0.030768927 -0.043495905 -0.010269951 -0.03785947 0.049697045 0.017624278 -0.023956168 -0.0053035542 -0.0001622811 0.014031585 -0.048106775 0.022852171 -0.05283272 -0.033577546 -0.011428822 0.050766077 
-0.23503822 0.1508394 -0.14369185 0.33975378 -0.21068802 0.029080065 -0.05702499 -0.027948838 0.06490845 -0.014424909 -0.015109681 -0.6175638 0.17810966 -0.05384066 -0.0418248 0.24639715 0.3392647 0.01843936 0.025347576 0.021867339 -0.11065678 0.25118822 -0.021655997 0.0144100655 0.31495646 -0.056175407 0.23704611 0.5685424 -0.34875906 0.4125753 0.48519686 0.013803416 0.28520188 0.011769198 -0.05652745 0.39902416 0.44142637 -0.056498185 0.45081738 -0.030446673 0.21613109 -0.0389436 0.03719393 0.03441393 0.13475497 -0.021802431 -0.41382012 0.1196072 0.0029296237 -0.03878603 0.014221502 0.36350605 0.032157574 -0.11692963 0.03550075 -0.28073865 0.2365296 0.015535304 -0.06347823 -0.037543453 0.28325436 -0.23178877 -0.52207464 -0.042267125 
-0.027416 -0.08087238 -0.038727168 0.1907659 0.11500095 -0.020860763 0.019488484 0.033542812 -0.018508563 0.0012373307 0.009958142 0.044189196 0.22393592 -0.5885655 -0.032756947 0.28885925 0.23537253 -0.05336269 -0.058280792 -0.045439985 0.20258717 -0.092612736 -0.029298337 -0.0007207952 0.15124819 -0.04532947 0.044395536 0.21539421 -0.0015422828 -0.19229436 0.06183467 -0.013034271 0.26380956 -0.03437178 0.011186493 -0.108327076 0.035240814 -0.010485485 0.10369078 0.007850072 -0.039911322 -0.01960108 -0.020676648 0.0066528064 0.07618646 -0.056384057 0.16212477 -0.044703007 0.13390942 -0.04273084 0.0034877842 -0.02284308 -0.0312185 0.2503133 0.039784577 -0.26103377 0.19440547 0.027666504 -0.009292262 0.085476145 0.036258124 0.24219319 0.10045887 -0.022966158 
0.0020010658 0.020018544 0.0047171116 -0.045887418 -0.0017875247 0.02054954 0.040107083 0.01883239 -0.050204646 0.00044989958 0.0036359876 0.03203919 -0.05521722 0.010985572 0.025040526 0.035331745 0.052632842 -0.008422211 -0.035229377 0.042640183 0.02855033 0.0066731237 -0.01718859 -0.017241552 -0.04297665 -0.022152528 0.04945765 0.025721487 0.01079848 -0.042362854 -0.01931825 -0.012124438 -0.02279735 -0.0151539855 -0.0021112934 -0.04158513 0.014725249 -0.013115633 -0.03395215 -0.020996507 0.0043817908 -0.0039570667 -0.037020124 0.006567087 -0.025724178 -0.04421727 0.008592363 0.03324591 -0.055102024 0.025658246 0.0056289695 -0.020482928 0.04489314 -0.054718845 0.00912353 0.035879936 0.0153952055 -0.034129083 -0.0013864115 0.009042677 0.04000258 0.047694873 -0.036384977 0.0034726225 
-0.044916883 -0.14266486 -0.5290959 0.96451455 0.11562642 -0.046033125 -0.04029067 0.011349803 -0.15497239 0.0043973112 0.028847279 -1.103624 0.48382893 -0.11657585 0.025660008 -0.072509535 1.1719068 -0.38891062 -0.020076433 -0.02640374 -0.3294816 -0.044580556 0.0015581488 -0.034510918 0.27853394 0.02506964 0.017208824 0.274575 -0.9696088 0.26779255 0.17591983 -0.038338378 0.058552243 -0.049745888 -0.0545859 0.17024975 1.0160581 0.052208457 1.015535 -0.053566605 0.17317455 0.03571336 -0.032022435 -0.011131525 0.0018839507 0.036081005 -0.6331555 -0.3602971 0.2872058 -0.015645085 -0.038662218 0.33904055 -0.045982298 0.09246221 0.037407406 0.3902668 0.094377376 -0.033467144 -0.026455143 0.13991888 0.24755105 -0.28096026 -0.66205585 0.012718674 
-0.09931734 0.21216953 0.06337442 0.112225145 0.07110013 -0.01081938 -0.047516644 0.017879983 0.113273166 0.04293669 -0.009747006 -0.29282638 0.011996332 -0.1249059 -0.023494497 0.25059757 0.03528521 0.17447789 0.027381845 0.02661068 0.017908126 0.26016858 -0.051987845 -0.0580123 0.2500677 -0.047451343 0.1075979 0.53030485 -0.123293325 0.27283087 0.32680568 -0.060144085 0.35078982 0.005876149 -0.0317031 0.33396593 0.2915439 -0.024088215 0.16594401 0.015901856 0.14117679 -0.032994643 0.018540433 -0.045409873 0.14386418 -0.034851853 -0.2764772 0.30557746 0.024296833 0.031058827 -0.0648739 0.34283397 0.0025480501 -0.18892725 -0.005972538 -0.57063955 0.3232515 -0.02823333 -0.050033458 -0.13908027 0.23446001 -0.054001022 -0.46389404 -0.010547973 
0.009567057 0.05879313 0.09667194 -0.050615173 0.09935114 0.03069275 -0.0635254 -0.060754728 0.02361792 0.021077376 -0.03471091 0.07341279 0.05150137 -0.45935062 -0.026443345 0.33259472 -0.016163746 0.08826801 0.031166304 -0.03237383 0.1090282 0.047788832 -0.050827328 -0.020629004 0.14969435 -0.039484404 0.011101808 0.32172439 0.00070647703 -0.054079372 0.15802352 -0.059454132 0.27063924 -0.023199454 -0.016414767 -0.053790346 0.038559593 -0.005473534 -0.025736168 -0.056253802 0.035431888 0.021160603 -0.004557282 -0.035569903 0.08182892 -0.061968803 -0.03056676 0.1850501 0.038481213 -0.04506771 -0.0016095217 0.1536453 -0.0053714 0.033908512 -0.040648583 -0.51935726 0.26754746 -0.03131236 0.026604079 -0.061818995 0.109790884 0.088904716 -0.09139356 -0.043466587 
0.21748129 0.15319043 0.06540237 -0.30081603 0.14716125 -0.053936727 -0.023885634 -0.047194276 -0.3093946 0.35428265 -0.0021762475 -0.45313916 -0.74743044 0.8526786 0.01128928 -0.093147054 -0.6318589 0.025459083 0.034837034 -0.028795313 -0.8089268 0.20620842 0.0153254755 0.01570366 -0.304595 -0.03198065 -0.09666747 0.5269294 -0.7725085 0.827187 0.8094246 -0.05483645 -0.011110886 0.019777622 -0.05858944 0.3491717 0.39304322 0.010725442 -0.078519404 -0.046618782 0.0669632 0.04018979 0.019377796 0.022886483 -0.3193798 -0.01385998 -1.1939201 0.41861004 -0.00012851876 -0.043989893 0.04915123 0.35526234 -0.039078124 -0.95065826 -0.017949238 -0.67183584 0.21228574 0.015103664 0.014619049 -0.80843437 0.22513832 -0.7739257 -1.0351721 0.03774148 
0.36086982 0.4859444 0.10836487 -0.31963256 -0.43329066 -0.022943981 -0.060110115 0.03350547 -0.019143201 0.095761515 -0.021643128 -0.53704864 -0.63236904 0.75107867 0.03153671 -0.2082036 -0.5178126 0.49736613 -0.056291427 -0.05709221 -0.36810687 0.68362576 0.04434138 0.02111111 -0.4826311 -0.045296088 -0.29345852 -0.022417512 -0.17687757 0.5584738 0.27843532 0.0032605093 -0.35466433 -0.03340874 -0.040095486 0.80182743 0.016673027 0.037696056 -0.2193941 -0.017476907 0.15668952 0.03865346 -0.040310357 0.05080529 -0.110099904 -0.017121078 -0.7335839 0.66695184 0.043835606 0.04217597 0.0071326806 0.30344558 0.029185997 -0.7746068 0.006846744 -0.4706253 -0.08388041 0.032558206 0.033373874 -0.76244384 0.12075804 -0.57679135 -0.81441194 -0.031568296 
0.35319844 0.18221103 0.40014565 -0.21159567 0.064735375 0.045741025 -0.035389498 0.036042742 0.44557217 0.13421959 -0.0062645944 -0.46345344 -0.27213767 -0.56225586 -0.01500152 -0.23835196 -0.08786159 0.1848214 0.045329016 -0.036665488 0.055922437 0.4284752 -0.049662635 0.002304189 -0.25797844 -0.023572108 0.15352064 -0.3459619 -0.33511883 0.0913769 0.24300213 -0.007273235 -0.19576727 -0.009364396 -0.041011367 0.22179621 0.15103456 -0.028521668 0.009167771 0.0075084167 0.3773356 -0.05248162 0.006026419 0.004628122 0.23965605 0.05030626 -0.55164516 0.25894842 0.20001934 -0.03502008 0.046421897 0.31474128 -0.00359022 -0.29571968 -0.033302534 -0.46086258 0.24633512 -0.00967438 -0.0011281065 -0.3439313 0.41994235 -0.1321845 -0.5416548 -0.041985214 
0.034822572 -0.015088592 0.027931195 0.036901306 0.032417905 0.04643466 -0.03784863 -0.04290233 -0.0036370307 0.004930824 -0.007073786 0.012408402 -0.013821393 0.019763302 0.04067805 0.02247883 -0.01879308 0.05559576 -0.0490204 -0.044954896 0.027984407 0.008728143 0.03932554 0.04270133 0.03974765 0.011136729 0.02565996 -0.036475576 0.018787954 -0.026369952 0.025511038 0.04200655 -0.03462421 0.008583676 -0.0006368458 -0.048146043 0.021925028 -0.0015175715 0.017750677 0.041771058 -0.04286498 -0.027445173 0.036525857 -0.042345412 -0.048549395 -0.0071644485 0.020679776 0.05255587 -0.04046246 0.016756255 0.0041437037 0.0078413375 0.0032173544 -0.01565338 -0.037579104 -0.02943814 -0.050049674 -0.051226493 0.055640515 -0.011703033 0.031384315 -0.045924157 -0.03882105 0.026540693 
-0.12757066 0.2574304 0.178066 0.029951418 -0.06964015 -0.06361212 0.03551024 -0.00896745 0.068745345 0.047645126 -0.049160235 -0.21435358 -0.18367557 0.1378785 -0.041082144 0.22402498 -0.1277342 0.21364969 -0.00079689367 -0.05091862 -0.012226135 0.39218825 0.03423173 -0.05062689 0.13222164 -0.031324517 0.18131791 0.4906578 -0.1506533 0.5158885 0.4419655 0.026387021 0.22725992 -0.03977895 -0.013129237 0.42044702 0.2319897 -0.047098048 0.1137495 -0.06129199 0.18636331 0.036835823 -0.02571491 -0.019863574 0.116317734 -0.030608363 -0.4024156 0.4270621 -0.052911427 0.0031681915 0.008981371 0.33279312 -0.054695915 -0.3749218 0.0071943323 -0.70448905 0.34317347 0.022481319 -0.062166438 -0.23674798 0.35611728 -0.16218646 -0.46827546 -0.03815604 
-0.019105753 0.067286804 0.056785084 -0.056271493 0.14886843 -0.05706487 -0.019692568 -0.0030224745 0.05199641 0.04096259 0.0057304646 0.07410424 0.025181094 -0.5048695 -0.02557705 0.2100007 -0.04628085 0.030293075 -0.0034765226 -0.029783085 0.0900701 0.048962995 0.03980773 0.022829054 0.092155226 0.020016117 0.0018938694 0.23670042 -0.06885586 -0.03926181 0.17672138 -0.0037882952 0.24642536 -0.007707705 -0.015675759 -0.07378841 0.026198458 -0.04268246 -0.046567395 0.004514095 -0.046044454 -0.028989587 -0.0519522 -0.020266468 0.0044815587 0.031440545 -0.12407386 0.12788987 0.07924854 -0.055030774 -0.05954474 0.07969041 -0.028766483 -0.006227565 -0.015291572 -0.34458274 0.18903942 -0.040922496 0.0077023674 -0.07868501 0.15061046 0.029903058 -0.108153224 0.025500596 
-0.021653455 -0.029273305 -0.013003796 0.032542188 0.04040147 -0.0063828304 0.014640685 -0.0034079514 0.023119356 0.0036796853 -0.008354116 0.028748173 -0.05447946 -0.03841129 0.006947499 -0.053760063 -0.025984202 0.0002297461 0.0254593 -0.054796442 0.00076686963 0.043000165 -0.013660867 -0.007524863 -0.00077020377 0.011994209 0.049121726 0.021879416 0.014340151 0.007613104 -0.039147697 -0.03825321 -0.022958037 -0.054503858 0.023714643 -0.03627523 0.001780726 0.032602657 0.036716368 -0.049708907 0.0015531741 -0.0083134025 -0.005080495 0.05012251 0.05335493 0.03027198 -0.018752526 0.02711356 0.034692306 -0.017105933 0.051070463 -0.0348156 -0.039693438 -0.04320458 0.023673724 -0.034005754 -0.011466242 -0.054243755 -0.015299309 -0.03571502 0.029512126 0.02529798 0.0048321337 -0.033363007 
-0.577291 0.90516084 0.71717227 0.56149656 -0.37802443 -0.053072374 -0.013386233 0.014582537 0.9274469 -0.16942644 0.038942147 -0.7443553 0.41216317 -0.14113215 -0.0057466454 0.6371081 0.51555747 0.9445145 0.012891793 0.038289394 0.29358032 0.7182756 -0.05083859 -0.05096013 0.9043563 0.038093325 0.7769785 1.0280725 0.161535 0.86083233 1.0898435 -0.030596493 0.8300441 -0.0022662282 -0.033955004 0.75481576 0.9576908 -0.026780302 0.8628905 0.004336762 0.8049652 -0.05825057 0.005286605 0.04290819 0.9326092 -0.020508371 -0.6093525 0.8192001 -0.27098486 -0.009010825 0.022065025 0.9267938 -0.04366259 -0.21686698 -0.041669577 -0.45155504 0.8111081 0.017471291 0.035617333 -0.07238715 1.120978 0.19265823 -0.5841196 -0.051655572 
0.034843758 0.16711973 0.2818515 -0.112981744 0.11082665 0.043125473 0.021220293 0.006384467 0.044970393 0.08669807 -0.06299126 -0.051733 -0.07288374 -0.063294105 0.021891173 0.32138166 -0.21484944 0.14495054 -0.049114387 -0.01130992 0.18550833 0.21438414 -0.040952053 -0.0552868 0.0702932 -0.004890183 0.05346748 0.25406238 0.03930942 0.080836676 0.1265425 -0.016816812 0.22869074 0.030594543 0.009675705 0.17867018 -0.09702591 -0.011336492 -0.05152073 -0.0147380475 0.036119655 -0.033850502 -0.02240711 0.023753466 0.07723216 -0.0069310744 -0.0281394 0.30099502 0.0312663 -0.051474135 0.03581449 0.101116754 0.039022163 -0.08384194 -0.040252708 -0.564972 0.23891905 -0.05197522 -0.060228616 -0.110762 0.13290302 0.14612849 -0.12442142 -0.029284814 
0.12607856 -0.21700676 0.07626972 -0.09869025 0.22017254 0.016254978 0.0044632517 0.002800649 -0.040951014 0.15675278 -0.0070901015 0.30927122 -0.03474409 -0.6702265 -0.028461289 0.06308588 -0.12881516 -0.12925197 0.008743975 -0.061625566 0.18967518 -0.22048515 0.007165335 0.031912845 -0.034141913 0.024022846 -0.17393863 -0.10909524 0.08839861 -0.28459412 -0.17136261 0.02260111 0.05051277 -0.045411844 -0.03343543 -0.40477598 -0.23682539 0.044450548 -0.21960847 -0.051194552 -0.19351552 -0.042398542 -0.016767852 0.048651464 -0.08414494 -0.03366348 0.2184543 -0.102145255 0.04916609 0.04626275 -0.00081408175 -0.26495138 -0.01358189 0.0858715 0.009948432 -0.14465788 0.034320466 0.020244598 0.03062731 -0.010513464 -0.19757992 0.17228305 0.23528843 -0.0027720896 
0.4308328 -0.19293995 0.15636453 0.052658465 0.38372925 0.011920635 -0.022239182 -0.04416016 -0.0069317203 0.33328992 0.042164613 -0.24364614 -0.16386645 -0.99119717 -0.026710082 -0.1253679 0.11604583 -0.23044878 0.01540085 0.035271525 -0.0914798 0.046188463 -0.054788426 -0.03875663 -0.30744705 -0.00044888258 -0.09403396 -0.12670779 -0.667693 -0.05228281 0.14833625 -0.04598753 -0.17216332 -0.05347149 -0.008757154 -0.043805066 0.19566464 0.03780635 0.105208956 -0.000810232 0.06523627 -0.044785682 -0.05666391 0.038562622 0.018669559 0.04319075 -0.61359984 -0.105871536 0.2963061 0.0016101226 0.05546691 0.0216447 -0.02058027 -0.2433374 -0.015419438 -0.3906908 0.26032916 0.024483308 -5.9106333e-05 -0.17798859 0.09582991 -0.0972798 -0.46008766 0.0055419286 
0.23936474 0.56194526 0.1731035 0.111806974 -0.46129844 -0.054800596 -0.020924067 -0.007331168 0.2644802 -0.08393291 0.022006618 -0.51120687 -0.09312007 0.58622694 -0.035475485 0.13447824 -0.07714924 0.56096625 0.004041222 0.035782307 -0.12541787 0.44980764 -0.03469971 -0.061478265 0.09512187 -0.045612525 0.14070447 0.26041505 0.19354491 0.54738545 0.37921336 -0.06122378 -0.008605408 -0.024761826 0.025739992 0.64082944 0.12352914 0.05074174 0.19228487 0.023404054 0.32174274 0.014926418 0.045768768 -0.036970627 0.33268598 0.021257346 -0.2958283 0.57858443 -0.112301864 0.027501158 -1.441917e-06 0.33004358 -0.060349483 -0.39794225 -0.026045533 -0.11118382 0.1304184 0.020471418 -0.05463697 -0.2992247 0.3566277 -0.14173603 -0.33035994 -0.031711504 
0.27916023 0.5290115 0.12899578 -0.036840107 -0.3885448 -0.061058544 0.03746844 -0.003708074 0.13529639 -0.0030481636 0.037909713 -0.61972183 -0.39519194 0.667833 0.025304303 -0.08085121 -0.24025458 0.521761 0.035584092 0.033301096 -0.43375263 0.6254269 -0.048102677 0.012943228 -0.17468178 0.0170439 -0.11859353 0.20245552 -0.21592154 0.7656772 0.597134 -0.020811208 -0.18085812 0.01954956 -0.014043841 0.82165664 0.2696917 -0.04134037 0.14402184 -0.037640497 0.31874773 0.011437024 0.030937424 -0.05353018 0.06748693 -0.054058503 -0.830602 0.64848024 0.045357957 -0.002536601 -0.014770104 0.45670667 0.010982589 -0.7530261 0.027034104 -0.46687195 -0.0017048137 -0.022161197 0.04323314 -0.7318081 0.40818813 -0.5061895 -0.78757703 -0.036033504 
-0.05612466 -0.038494 0.052010294 -0.01137973 0.049202833 0.044500086 -0.045233645 -0.03155926 0.016112056 0.032085072 -0.046611287 -0.025006374 -0.012532566 -2.5562942e-05 0.024657201 0.04584111 0.0485205 0.04298443 0.0064836927 -0.013927609 0.025078122 0.022006843 0.006276708 -0.000752911 0.044487264 0.05507527 -0.028007375 0.004689742 -0.051708553 -0.002033133 0.029296044 -0.0009218417 -0.00020640716 0.0259079 -0.006527856 -0.04687787 -0.027913863 0.05398115 0.02165008 -0.017882518 -0.032879446 0.023554947 -0.052315578 -0.046172015 -0.014467154 -0.023556162 -0.041385654 -0.050571162 -0.046383493 0.030912098 -0.020103108 0.011763606 -0.03186496 0.053206388 -0.022309318 -0.055599865 -0.009402126 0.0030830987 0.007183414 -0.010935746 0.041912686 -0.012919895 -0.014005382 -0.022917952 
0.14573753 -0.07059774 0.3664235 -0.2739982 0.228425 0.02290718 -0.050208863 -0.021420794 -0.023923667 0.0519459 0.015035705 0.13414405 -0.07603703 -0.28161874 -0.027623363 0.263146 -0.23050147 0.069859505 -0.055387825 0.034000613 0.22731374 0.088412784 -0.010044532 0.005375561 -0.032641497 -0.0027403731 -0.081395045 0.008049115 0.23157403 -0.38874504 -0.24333745 0.016873656 0.094231255 0.024444364 -0.062141795 0.01944782 -0.32318294 0.0063908854 -0.39268067 0.043518957 -0.08676652 -0.04624348 -0.054377075 -0.033202954 -0.04246261 -0.050950557 0.26651314 0.1456286 0.08156945 0.0032389362 0.030081606 -0.17011346 0.008767695 0.11570211 0.0045920475 -0.48130032 0.2060032 0.009897331 0.008530854 -0.06552631 -0.09613333 0.41445017 0.22352171 0.0044636857 
0.07762463 -0.08530367 0.10826308 -0.088452876 0.19504328 0.023348652 -0.059963845 -0.009633038 -0.039823994 0.055397358 0.0034777897 0.26672795 0.1055615 -0.73187834 -0.020597244 0.08198916 -0.009990731 -0.01179084 0.03126988 -0.05631051 0.17126422 -0.14587708 0.008734231 -0.050761417 -0.023600321 -0.021243483 -0.01814447 -0.0611497 0.04051402 -0.19026425 -0.11722217 0.019716706 0.051297054 -0.04595808 0.0019098021 -0.32860082 -0.12863371 0.032444857 -0.059546966 0.023100752 -0.07551776 -0.039634157 -0.008503834 -0.048858874 -0.073704846 -0.008164892 0.18334208 -0.056266848 0.012804981 -0.023931907 -0.0026631388 -0.16847287 0.04288604 0.097503476 0.032443274 -0.15587556 0.07691965 0.018671732 -0.025629152 0.008593504 -0.093456715 0.2043477 0.22864786 -0.044440545 
0.022349875 0.046678957 0.019168105 0.032338534 0.017687317 0.001179535 0.03314324 0.055128243 -0.009703454 -0.044081047 -0.053171426 -0.011235062 0.016033683 0.0048974715 -0.022117354 -0.015543699 -0.029437954 -0.03175707 -0.0060681887 0.04422273 0.0020775422 -0.022655308 -0.04222947 0.0014927201 0.022421438 -0.05569825 -0.05561421 0.041032832 0.052621026 0.021447223 -0.0021311305 0.019508686 -0.03041329 -0.004994385 0.00016570464 -0.054709744 -0.0061100796 -0.026564125 0.053742785 -0.048748694 0.032579098 -0.0017686151 0.05583712 0.054994415 0.025064323 0.00073845685 -0.023517832 0.03834666 0.030711513 0.022493292 -0.03281045 -0.011401545 0.0027143843 0.011511076 -0.04709153 -0.021432102 0.037672307 -0.028516727 0.031806137 -0.05425026 -0.02284833 0.008917991 0.02057008 0.013034511 
0.13236669 0.3360799 0.312403 0.32778376 -0.1372275 0.016917612 -0.05885457 -0.028925916 0.31992194 -0.11497531 -0.049396876 -0.398732 0.06421559 0.60503745 -0.0017589161 0.117086135 0.09537187 0.3285205 0.011383098 0.03512234 0.0110625895 0.2984237 0.0081282575 -0.02384998 0.23632467 -0.031144131 0.3288144 0.39407852 0.03252557 0.40410796 0.5156688 -0.03177167 0.14185554 0.034673125 -0.047002595 0.4562735 0.33014432 -0.007886216 0.3433922 -0.055696648 0.19619346 -0.030930163 -0.013709576 -0.046615805 0.33687806 -0.033974007 -0.42876652 0.30237466 0.03669845 0.014462524 -0.0010704873 0.3017297 0.008116964 -0.24841501 -0.0321954 -0.2509722 0.25458658 -0.00289122 0.04775352 -0.3022282 0.3642886 -0.008703384 -0.48488548 0.020900501 
0.32400918 -0.45831826 0.035249945 -0.33612177 0.32005027 0.03532413 -0.02312347 -0.020507427 -0.33657664 0.086932026 0.0049571237 0.47591785 -0.13248576 -0.60159135 0.04085509 -0.050802965 -0.25732872 -0.33357644 -0.022517294 0.00024662048 0.22674873 -0.24314141 -0.0060833637 -0.00034291827 -0.34958002 -0.021043533 -0.4398651 -0.33708012 0.05680857 -0.59469557 -0.5000769 0.020972824 -0.15887778 0.0024023075 -0.024399769 -0.45270547 -0.66707087 -0.04556641 -0.61819756 -0.061413445 -0.36644652 0.030661892 0.032760188 -0.04847662 -0.3085351 -0.019405963 0.36857966 -0.2832742 0.2171204 -0.048691135 -0.020485025 -0.60159993 0.042767253 0.22848555 0.020198993 -0.22822395 -0.14375344 0.012774516 -0.01730903 -0.06021665 -0.49225697 0.42367467 0.4505174 0.016122904 
0.11598112 -0.2626121 -0.08505795 -0.09761271 0.17155397 -0.013803335 -0.05273008 -0.019190548 -0.10909528 0.15257414 -0.014409522 0.3157231 0.07140353 -0.7270033 -0.009797049 -0.031215841 -0.028952252 -0.1277634 0.012134343 -0.052745126 0.06443241 -0.28964865 -0.0077073094 0.041269206 -0.13410322 0.039348222 -0.25738493 -0.10622056 0.004678053 -0.21640244 -0.14578426 -0.00890605 -0.021688767 0.0137772495 -0.03370142 -0.5690816 -0.15077487 0.049618572 -0.099877134 0.02905685 -0.21514614 -0.016553357 -0.05183473 -0.009073613 -0.17776589 0.021947779 0.061983805 -0.18621673 0.058348313 -0.05436347 -0.04709576 -0.3011993 -0.048167694 0.047459286 -0.014323291 0.03229316 -0.0999727 -0.01018865 0.046637133 0.009784343 -0.1627479 0.036436837 0.203894 0.047426946 
0.054111723 0.648989 0.22795168 0.24746367 -0.19649306 0.0418885 -0.006944873 0.025655184 0.27546427 0.065132424 -0.048026003 -0.66214603 -0.19062783 0.4582262 0.045572493 0.07352129 0.13389787 0.48872814 0.00748126 0.0032200594 -0.32521102 0.6520642 0.02657217 -0.0103148 0.13495657 -0.05397196 0.022247761 0.4803262 -0.3307684 0.67171925 0.7350207 -0.00083739863 0.20721628 0.016367678 -0.02643515 0.68537664 0.50931174 0.0188318 0.35478577 -0.051080436 0.4346459 0.03735349 -0.0136235375 0.053413566 0.2386134 -0.03265591 -0.87190074 0.5670769 0.01712121 0.010591779 -0.044528805 0.5613368 -0.028826796 -0.67693883 -0.047484018 -0.48926327 0.27005735 0.03212318 0.036172576 -0.6299255 0.49315545 -0.40375236 -0.83641845 0.037576027 
0.4116144 0.6103079 0.40203792 0.15725145 -0.42314216 -0.012608731 0.03958855 -0.049477577 0.46941176 -0.19201294 0.028386688 -0.5272717 0.04627248 0.2951934 0.013241541 0.09708527 -0.17976598 0.69934523 0.0318836 -0.023041543 0.13119046 0.5652228 -0.054769717 -0.051395297 0.19183198 -0.0030340073 0.6866197 0.18575262 0.38997856 0.3408847 0.31248102 -0.043605994 -0.025969507 -0.041637637 -0.0340776 0.67645884 0.116294846 -0.04069744 0.28044382 0.04334802 0.44971776 -0.04252115 0.010971787 -0.011678563 0.4267052 0.027448598 -0.033793356 0.53026974 -0.08689687 0.0005532265 -0.015747298 0.4469159 -0.018859874 -0.06877572 -0.047753833 -0.31544948 0.16394381 0.037605077 -0.027146421 0.13587697 0.5050047 0.2718911 -0.021459145 -0.022235809 
0.19098504 0.4098895 0.19953816 0.27256897 -0.4166401 0.006966147 0.03773133 -0.009985651 0.30915102 -0.16575551 -0.032946676 -0.5670569 0.10592689 0.6252971 0.042944204 0.07685635 0.12607108 0.54381144 0.029405508 0.0020350504 -0.005870832 0.4287305 0.01090838 0.042594597 0.12748006 -0.042946585 0.22139773 0.27098027 0.12876537 0.4570493 0.42114207 0.028992921 0.04915496 -0.054714154 -0.015326652 0.5177602 0.22242014 -0.04242834 0.39505738 -0.029562999 0.24567711 0.03442045 0.018557694 -0.02923018 0.37765515 0.053776834 -0.37014058 0.40191856 0.0035731536 0.039861448 -0.06481005 0.29153973 -0.0036610854 -0.37474388 0.0037793377 -0.041506067 0.061477806 0.009390121 0.011435306 -0.32349697 0.40410584 -0.032333534 -0.43487316 -0.038413238 
0.028163161 0.026113357 -0.020523801 -0.026570562 -0.002252508 0.026746776 -0.01345418 -0.05345823 0.014301445 0.0063885413 -0.0026944838 -0.044862546 0.023551475 0.045527328 -0.045532584 -0.016197689 -0.044710975 0.046430808 0.0032029264 -0.041963786 -0.031227458 0.036119845 0.042729024 -0.02180662 0.008991819 0.033022787 -0.04993829 -0.03378152 0.0025979206 0.041993428 0.0019998997 -0.00025484338 -0.027252806 0.04158735 -0.015034214 5.5462122e-05 -0.049008835 -0.012192026 -0.017844938 -0.042121246 0.03627115 -0.014308084 -0.050414853 0.030469205 0.0032673813 -0.03485773 0.004678551 -0.035701744 0.026909921 -0.008104812 -0.048031747 0.028737571 -0.026410505 -0.047170438 -0.010648541 0.051357027 -0.019667916 0.052972417 -0.0008489005 -0.006888859 0.041573565 -0.025961261 -0.020348955 -0.027301684 
0.3239534 -0.54586756 -0.043983694 -0.4281572 0.29087713 0.027069468 -0.037778396 0.0008156092 -0.43642545 0.23471491 0.04002596 0.41891617 -0.22058795 -0.36811265 -0.02124589 -0.18948928 -0.28994748 -0.4393577 0.03771062 0.005636546 0.078396894 -0.42023417 -0.036670137 0.028848259 -0.4527005 -0.014997496 -0.7486115 -0.44517115 -0.04282812 -0.6008805 -0.6844426 0.029868187 -0.2734052 0.021104574 -0.007838556 -0.586785 -0.684718 0.04982272 -0.65171456 0.029327404 -0.45653096 -0.03679812 -0.030453779 -0.030227562 -0.4060967 -0.057434432 0.2629859 -0.4205936 0.17496534 0.007863875 -0.031165741 -0.7807031 -0.019630777 0.05753916 -0.031740405 -0.025209779 -0.2964986 0.017751241 0.038336676 -0.2132809 -0.6760339 0.18064979 0.3526538 0.0072962022 
0.09953668 -0.2207241 -0.059803013 -0.030092077 0.24595398 -0.056158032 0.014785143 -0.06459911 -0.12543344 0.11817329 -0.005547659 0.32462016 -0.022166958 -0.7030453 -0.03332759 -0.09064134 -0.01580462 -0.16133708 -0.056498684 -0.05653417 0.059644986 -0.26647934 0.025860844 -0.007721721 -0.095782906 0.011483138 -0.08135916 -0.18145436 0.0147163225 -0.121347174 -0.17564252 0.022506682 -0.030007502 0.03936297 -0.040452097 -0.50253767 -0.08885165 -0.034212995 -0.12877043 -0.018668829 -0.24970332 -0.02282696 -0.015693713 0.027196608 -0.14910038 0.013821768 0.09615976 -0.13393612 0.0911288 0.016133338 -0.053921707 -0.16758357 -0.02988835 0.07945963 -0.061245363 0.03234039 -0.14551567 -0.05334378 0.04118076 -0.031240901 -0.17061523 0.083495796 0.1148725 -0.05844902 
-0.05160931 -0.051882196 0.010247175 0.050448645 -0.017715286 -0.027451089 -0.041032266 -0.04774758 0.054976348 0.029182706 -0.0073601343 -0.03645222 0.030274805 -0.04211726 0.016475629 0.055756014 0.028290313 0.014824044 0.04823665 -0.0006330572 0.03153212 -0.010014679 -0.046792436 0.020799216 0.044862267 -0.036876984 0.008926827 0.050849024 -0.02606987 0.038136344 0.015828256 0.034377877 -0.043642875 -0.0016046464 0.019708347 -0.045366198 -0.0059387386 0.055443678 0.0008081049 -0.011137869 -0.03417384 -0.046362508 -0.04991732 0.04709747 0.03436668 0.0070849247 0.044419196 -0.050891172 0.030668627 0.05612747 -0.018056229 0.04232044 0.019747313 0.03811529 0.010737624 0.013533745 -0.04173979 0.0439804 -0.04967119 -0.034838073 0.015988376 0.02588829 -0.031677306 -0.030363234 
0.6776586 -0.20009439 0.44422054 -0.15392926 0.5871951 0.045818355 0.00039673765 0.014672268 0.09059056 -0.050792545 -0.015759256 0.27687523 -0.011659821 -0.71650386 0.009326164 -0.018547911 -0.16610923 -0.050097417 -0.04064759 -0.02431366 0.545155 0.13023299 -0.016430026 -0.053746246 -0.14074707 0.03352869 0.13486977 -0.24895279 0.10820423 -0.66054827 -0.26670283 0.047766425 -0.15112148 0.0157553 0.0033051658 0.059704687 -0.3200752 -0.033706516 -0.2722487 -0.04524449 0.10951508 -0.005568737 0.00017722433 -0.021833228 0.10385442 -0.055191763 0.38388327 -0.11280579 0.2914798 -0.0037320354 0.014588516 -0.08744648 0.038678996 0.3264166 -0.00040911365 -0.61911297 0.030478887 0.042723745 -0.001179956 0.090206414 -0.027163181 0.64977753 0.28664672 0.0015347776 
-0.1250633 -0.25477 -0.0542805 -0.11614525 0.02161625 -0.0592155 -0.01516898 0.015323244 -0.11957066 0.19325255 -0.03536714 0.2567871 0.12651739 -0.67258394 0.008696518 0.14801225 0.06435144 -0.173758 -0.01286555 -0.011959248 0.17280066 -0.35146743 -0.042125892 0.026413929 0.11677532 -0.020333765 -0.326777 -0.05714097 0.017342592 -0.17205359 -0.19815946 -0.04292374 0.111312866 0.05017068 -0.0041128825 -0.5175612 -0.18160145 -0.02127413 -0.13347922 -0.01213976 -0.22171329 0.0226528 -0.022057392 0.041411683 -0.09598472 0.049264535 0.2022591 -0.20684312 0.092442796 -0.051952016 0.005296912 -0.36821967 -0.01586479 0.10241716 0.008180814 0.14008482 0.027722456 0.02579117 -0.06467837 -0.0047095595 -0.2395445 0.14178866 0.21678607 0.035098378 
0.018737895 -0.022629578 0.0035849134 0.17567766 0.08438848 -0.009294884 -0.020768201 0.034010403 0.08269475 0.032363966 0.042703897 0.18085861 0.113760486 -0.6403191 -0.052997053 -0.025385167 0.12336022 -0.00933065 -0.028829716 0.0041127806 0.1291166 -0.24125935 0.01436653 0.02164583 0.1650616 -0.005955777 0.06596515 0.06949125 -0.06427847 0.036318664 -0.02062503 -0.061962623 0.051030383 -0.059005164 0.04272373 -0.33861005 0.13368084 -0.0038140225 0.09642604 0.008926345 -0.042430196 -0.020603644 -0.05724739 0.0055061276 0.04570231 -0.030558456 -0.008435051 -0.061977826 -0.0302887 -0.027457133 -0.021175014 0.06402376 -0.03793214 0.048417892 0.042748213 0.078418314 0.01765265 -0.009947846 -0.053350404 0.017003901 0.11745935 0.060700968 0.14481404 -0.05725566 
0.028470438 0.4933211 0.30149576 0.43413207 -0.4290654 0.0037218656 0.05565163 0.051792253 0.36880475 -0.04900543 -0.023600638 -0.711557 0.120620504 0.60680556 -0.017600827 0.20341498 0.25166783 0.45569792 -0.036551453 -0.015336323 -0.1586948 0.37133086 -0.027608786 -0.048578933 0.39511538 0.006810484 0.20829913 0.54896295 -0.039980758 0.45983186 0.7145536 0.046407145 0.3237891 0.024573002 -0.0005372599 0.4576659 0.45078707 -0.0065088533 0.4723823 0.03615756 0.31484717 0.05432915 0.007432007 -0.021830777 0.44910738 -0.0410358 -0.52116406 0.38562226 -0.09333172 -0.03944032 -0.023880156 0.49197215 0.0044524674 -0.46737176 0.019151695 -0.115834154 0.26223466 -0.035259902 0.003858734 -0.4210669 0.3982456 -0.08054337 -0.55115354 0.0038689747 
0.36417583 0.54197454 0.40014005 -0.14297207 -0.26713446 -0.020568345 -0.05025444 0.035843667 0.41552442 -0.19151525 -0.048873253 -0.180015 -0.21943472 0.084232986 0.002064285 -0.18388201 -0.46830365 0.6540805 -0.0424569 0.02742988 0.1826236 0.64639914 -0.052869115 0.020344831 0.07919989 0.020426264 0.5580176 -0.17260605 0.4224358 0.25909036 0.1844165 -0.030211944 -0.045959815 -0.01851203 -0.0511326 0.7160513 -0.093350284 -0.014172539 -0.09562966 0.016194753 0.4241667 0.040691286 0.0329781 0.039744247 0.38789165 0.038818978 0.15390229 0.53542376 -0.113491565 -0.0465044 -0.03572993 0.38610408 -0.047740396 -0.07931519 0.005626204 -0.7225016 0.050860193 0.026694324 -0.024051826 0.20128529 0.37248102 0.08442885 0.12822177 0.047835823 
0.29588816 0.51865435 0.5655927 0.29600373 -0.2747912 -0.041795217 -0.01063477 -0.019511355 0.5663112 -0.23686713 0.029531471 -0.48111194 0.17639333 -0.0648494 0.0065498077 0.19059072 0.057256587 0.6056861 0.041569453 -0.01856086 0.31918854 0.5361043 -0.0065420503 0.041900605 0.35754743 0.017589405 0.8232717 0.33727258 0.33003804 0.013897279 0.39796948 -0.025078008 0.12172148 -0.028090985 -0.04403748 0.47942537 0.29145232 0.035273474 0.2976703 -0.0006933479 0.46568757 0.030512715 -0.002956659 0.035769783 0.5680193 -0.026841667 0.04710659 0.4273343 -0.07891588 0.01996859 0.04002895 0.550122 0.028238794 0.082863264 -0.011752041 -0.32979763 0.3900964 -0.012925379 0.047748715 0.26652354 0.6544144 0.30557647 0.01402849 -0.012886425 
-0.011468802 -0.012280211 -0.018842451 0.036319185 0.01745062 -0.004856866 0.04193845 0.03774691 -0.017248847 -0.034692988 -0.026248747 -0.054037765 0.014235947 -0.027154313 -0.017692506 -0.046372626 0.04936916 -0.0196249 0.03728245 -0.035211317 -0.04028151 0.025024738 -0.023698501 -0.016484078 0.036667567 -0.010754541 0.04267134 0.009179417 0.024397422 -0.046530366 0.043591697 0.055879544 -0.0014169924 0.03959701 -0.053235333 -0.011211801 0.02299982 -0.047257863 0.03599521 -0.0210418 -0.011292882 0.039474238 0.027178284 -0.008178707 0.013654586 -0.0081184395 -0.033285204 -0.050667275 0.019805405 -0.009628918 0.0013410933 -0.016715847 0.00058427453 -0.0049058907 -0.040838778 0.013956476 0.044673745 0.014041346 -0.049313225 -0.021936499 -0.009737488 0.038025085 -0.037185498 -0.022242479 
-0.7833625 0.32768038 0.18229605 0.16588601 -0.56120616 -0.035668314 0.028029514 0.009016889 0.4908839 0.08414833 -0.0119823 -0.16820538 0.38701582 -0.97379863 -0.016338123 0.58879626 0.33632195 0.40286562 -0.0062546083 0.015286139 0.42761958 -0.087559216 -0.020202415 -0.009258974 0.6287129 0.021825077 0.054345153 0.33935064 0.20973165 0.080297306 0.18969509 0.018277464 0.6454781 0.044265453 0.037880458 -0.43078238 0.20250908 -0.013858956 0.3677391 0.037199363 0.3278126 -0.02938792 -0.024335615 -0.025601065 0.4763964 -0.049308445 0.26998907 0.072959475 -0.27183428 0.0056706085 -0.02253838 -0.0058503333 0.024103303 0.15857886 0.017464213 0.16148663 0.4568909 -0.011151128 -0.022838416 0.29087615 0.2608553 0.26548794 0.24527591 0.034100626 
0.07467589 0.0065804515 -0.1142354 0.050518516 0.09941259 -0.0171227 -0.034229923 -0.061295442 0.005668654 0.09377929 -0.02095544 0.18293329 -0.0037359819 -0.5099824 0.012038161 -0.057912797 -0.08342126 0.019307228 0.037169296 -0.00393659 -0.010603374 -0.20827025 -0.01709619 0.017930655 0.03278463 0.047027502 0.06996013 -0.024746303 -0.047082204 0.058909837 0.04380037 -0.041873895 0.016736982 0.02733128 -0.042321023 -0.28256807 0.14022991 0.009459875 0.058823466 0.018649662 -0.02330743 0.028375503 0.001202587 -0.034802668 -0.028726807 -0.0030495473 -0.12029777 0.002576124 -0.024554044 -0.016916802 -0.05528655 0.041517597 0.041716207 0.032874614 0.042208295 0.06618384 -0.09894007 -0.014496027 -0.023512669 -0.029751897 0.07563643 -0.06636076 0.09697431 0.032206606 
-0.024844628 -0.04503587 -0.010352518 -0.034972444 -0.014278654 -0.0065888055 0.016940642 0.03843466 -0.025119936 -0.02776379 -0.018056858 0.010390986 0.025066372 0.0520573 0.039529737 0.048867222 0.048856635 0.040142667 0.04233646 0.041058403 0.046345096 -0.0039754957 0.008708898 0.00023744255 -0.03277528 0.03669673 0.009160813 -0.016263176 0.013936866 0.0426373 -0.015368756 -0.0010808036 0.0031351633 0.027095024 0.03450503 -0.033673577 -0.03224513 0.014781725 -0.049497735 -0.055806767 0.00448573 0.033411484 0.055827845 0.049907085 -0.0048520193 0.054579582 -0.041503046 0.033086974 0.0034885518 0.0050535165 0.048625026 0.0058113635 0.04894652 -0.023971759 0.013235074 0.0039109327 -0.040998057 0.007890414 -0.048284233 0.017997015 -0.021971509 0.05235335 0.0024606138 0.051402304 
0.21282247 0.4032331 0.08382633 -0.5673193 -0.1920441 -0.031459708 0.039868336 0.017532552 -0.12125163 -0.10517767 -0.031920217 -0.2572212 -0.5845147 0.559543 -0.008868106 -0.2319689 -0.74671 0.28591248 0.016503736 0.0005570798 -0.48662636 0.63645166 0.032162473 0.010265767 0.010676855 0.018820884 -0.029327996 -0.0112256 -0.07784677 0.5512964 0.3395564 0.046736065 -0.050102893 0.015422855 -0.020705936 0.67384994 -0.17854956 0.03277753 -0.3086949 0.036431048 0.18407801 -0.02268422 -0.05818375 0.019464621 -0.15846004 -0.029254824 -0.40239444 0.50179106 -0.0032364689 0.0059915963 0.044913903 0.19495034 -0.024252685 -0.667546 0.038927104 -0.81579036 -0.08389458 0.009515096 -0.044100195 -0.45455217 0.051855523 -0.6096531 -0.4900208 -0.0050866976 
-0.47977728 0.074934706 -0.014787327 0.21130943 -0.28057572 0.014136958 -0.056615524 -0.05881936 0.14692843 0.1746089 0.022752738 -0.061771095 0.37199298 -0.6605491 0.044549838 0.3444792 0.282483 0.07536426 -0.0053642243 -0.019421585 0.23089315 -0.33602548 0.042792134 0.023883015 0.45886466 -0.015359336 0.049304567 0.22021148 0.043635916 0.098789155 0.09577045 -0.039441522 0.34135666 -0.004237567 -0.026787184 -0.45484164 0.22729096 -0.053275377 0.31529403 0.03290183 0.049130674 -0.010671149 -0.0075672553 0.007852445 0.22203636 0.025221324 0.08214999 -0.006657252 -0.1852009 0.024807516 -0.030962287 -0.03632071 -0.054111198 0.18716866 0.04089713 0.29623955 0.21501611 0.021030214 -0.048783723 0.12115633 0.13091442 0.15622658 0.15872169 0.022728551 
0.09845015 -0.0038037822 -0.006827883 0.11050296 0.105904624 -0.053976577 -0.043156434 0.007794012 0.124882646 0.07219415 -0.01841307 0.21130678 0.05871112 -0.5651757 -0.030227832 -0.09920566 0.028186077 0.06744868 -0.015466957 0.045767672 0.10070378 -0.088032074 -0.028981937 -0.0033874102 0.022708815 0.034594204 0.15303504 -0.08360291 0.0033292694 0.059332468 0.02925763 -0.047750093 -0.0032877151 0.0058171633 0.04267453 -0.30306575 0.11582367 -0.044201586 0.10063109 0.01849804 -0.026778113 -0.054952294 -0.030693844 -0.05274123 0.040400222 -0.0361382 -0.07434182 -0.042040873 0.06601795 -0.03107964 -0.051997215 0.038671345 0.0030150716 0.015892988 -0.043716356 0.041835546 -0.043510903 -0.022295646 0.014051817 0.010737392 0.18386593 -0.00251451 0.0991809 -0.04058452 
0.26186675 0.42999068 0.40828303 0.26885268 0.032280125 -0.01370441 0.033900138 0.030713025 0.3859858 -0.08037247 0.026775483 -0.33700803 -0.055830307 0.21175757 0.0328479 0.029309053 -0.08273275 0.42655966 0.0059703863 0.04082314 0.0659496 0.38468963 0.022994053 0.046733845 0.33384702 -0.035601936 0.5820925 0.29495394 0.07960553 0.15752234 0.54425097 -0.016698755 0.2072241 -0.00322818 -0.0051476737 0.43627736 0.31842932 -0.023142308 0.3233047 -0.01628095 0.44289604 -0.0023432216 -0.028571306 0.027280943 0.5460537 0.050285134 -0.22409421 0.41849786 -0.07980761 0.035305787 -0.009233221 0.50040716 -0.053016976 -0.2324555 0.026870526 -0.33624974 0.39518884 -0.050745603 0.054304626 -0.108201005 0.5422767 0.011662755 -0.29705656 0.043212984 
0.5051535 -0.015836645 -0.12590288 -0.7971893 -0.2903958 0.008133235 0.0033924708 0.036835328 -0.57963985 -0.08438904 -0.02678888 0.07333554 -1.0905123 0.9545774 0.0073789028 -0.80933756 -0.8974226 -0.09249383 0.04187659 -0.032684475 -0.6924021 0.37823698 0.02280347 -0.0062833796 -0.6044945 -0.053813215 -0.56360775 -0.47938132 0.1493906 0.44454873 -0.33249596 -0.0022089933 -0.6172066 -0.008176808 0.0076563023 0.574656 -0.64449924 -0.02006357 -0.87740827 0.024284096 -0.38625175 -0.03262766 0.0057887225 -0.052261226 -0.7175197 0.011025714 -0.25398412 0.5262158 -0.21459009 0.044624425 -0.06352388 -0.4069061 0.022630453 -0.8343747 -0.009829336 -0.4382488 -0.5645775 -0.050382953 -0.03335515 -0.6346974 -0.6086085 -0.6281475 -0.25699258 0.018868273 
0.445597 0.4633551 0.37167448 -0.19349313 -0.02735942 0.0069328635 0.0046671876 -0.02454657 0.2724898 -0.19819121 -0.001827757 -0.10583259 -0.32221478 0.16241382 0.009534738 -0.17478995 -0.5460429 0.54830676 0.020861855 -0.05321952 0.054482285 0.67563295 -0.030693792 -0.030194378 0.054383066 0.03661009 0.47770402 -0.091511264 0.25040638 0.40729412 0.25772148 -0.04191998 -0.066202104 0.04380023 -0.038129605 0.69529384 0.026970347 -0.049794067 -0.032505672 -0.022716016 0.351343 -0.026679616 -0.0013453885 0.03463841 0.19894797 -0.016482119 -0.06323402 0.5166965 -0.020409094 -0.009036748 -0.0061013047 0.39222744 0.023399917 -0.3039112 0.003640142 -0.863778 0.07843103 -0.046537194 -0.043265186 -0.07812403 0.30337375 -0.07615983 -0.052361116 -0.025465745 
0.037705127 -0.013924595 0.036214467 -0.008938551 -0.029825779 0.008450415 0.048139084 0.055873107 0.024342302 -0.021013748 0.022677165 -0.054309323 -0.046072453 -0.02658408 0.05165186 0.02897356 -0.021149445 -0.03720853 0.00808214 -0.000440944 -0.015881214 -0.009275623 -0.032614045 -0.04105376 -0.052879363 -0.0038534887 -0.036477193 -0.016226757 0.03633048 0.041534025 0.015144806 0.04777645 0.041995186 -0.03734036 0.032082435 0.0031324066 0.0080700405 -0.013731867 -0.007863436 -0.045490615 0.014030021 0.026689213 0.0487882 0.011905972 0.0005146228 -0.020891767 0.016284015 0.053762164 0.04057372 -0.051203325 0.022316989 -0.039063644 -0.05491054 0.05333888 -0.022417795 -0.01647602 0.0365432 -0.039049312 -0.051635653 0.009067487 -0.014298741 0.034948703 0.032393385 0.027199615 
-0.43782833 0.1266396 -0.00030744 0.07322095 -0.3423921 0.008213838 -0.043573335 -0.018007506 0.06701362 0.12479108 -0.029831808 0.0036474755 0.16611844 -0.48634544 -0.03346371 0.34262967 0.1599841 0.13659388 -0.06612339 -0.026480436 0.029865429 -0.25868747 -0.035822745 0.014075129 0.391204 0.028983472 -0.24764578 0.21580489 0.21037102 -0.043942768 0.01048873 -0.004699189 0.33834144 0.004340257 0.00027670906 -0.5382911 0.016550522 -0.025501557 0.07142087 -0.0025951227 -0.014840966 -0.00024778253 -0.029495906 -0.030056778 0.23607388 0.019637603 0.110213295 0.10350838 -0.19351108 -0.011426506 -0.014697245 -0.09563191 0.017918183 0.05910668 -0.060209125 0.35546902 0.22414973 0.041075695 -0.0053939 0.09892664 0.097455375 0.05120099 0.08778212 0.045309927 
0.21975018 -0.018954007 -0.028048523 0.06604021 0.18058975 -0.0007343499 -0.05875562 0.023938758 0.093500175 -0.039810628 0.036059294 0.17420214 -0.02154941 -0.3864606 -0.018320447 -0.23987347 -0.08240281 0.081701815 0.039550595 -0.048674893 0.009004632 -0.09604917 0.013677884 0.01701072 -0.060154047 0.011458393 0.14537136 -0.01694614 0.07545697 0.0811654 0.024642237 -0.039824095 -0.09446105 0.032776862 0.04417706 -0.07547223 0.03879602 0.0025872344 0.06708495 0.042111125 -0.0852307 -0.03170946 0.0093955025 -0.05010391 -0.0045176996 0.024619648 -0.100716665 0.031628616 0.031826176 -0.006326069 0.008157768 0.09768117 0.016923426 -0.047769044 -0.017189728 -0.07951113 -0.123556055 -0.0072191046 0.037398584 0.0020901982 0.07355681 -0.07685454 0.071097575 -0.0010961916 
0.044529196 -0.029654343 -0.049057994 -0.03429712 0.05527735 -0.015917711 0.0473266 0.010122571 0.028228905 -0.037639197 0.012120437 -0.03728411 0.048157487 -0.05278759 0.009048227 -0.05305038 -0.021249972 -0.028593136 -0.009213775 -0.023588099 0.024824943 0.010084908 -0.028457355 0.04352947 0.049431007 0.0068442263 -0.03139165 -0.009498987 0.03779975 -0.019979987 -0.015208792 0.03766259 -0.047778133 0.027212653 0.02514669 -0.03463782 -0.010407593 -0.055294566 0.024429772 -0.018816996 -0.014461357 0.05008347 0.011168439 -0.014772732 0.02149989 0.052639496 0.054697495 0.04323792 -0.0011629798 0.00017957017 0.0016882569 -0.03955265 -0.02211548 -0.026104094 0.033610743 0.004728686 -0.0007452145 0.008812409 0.055063758 0.048702184 -0.02767654 0.01188207 -0.023670446 0.031320628 
0.10871465 0.087050974 -0.4495797 -0.76521564 -0.30966628 -0.0013772871 -0.021624062 -0.0058037997 -0.64423704 -0.06734468 0.045703623 -0.18818817 -0.73307186 1.1099567 0.015956325 -0.43983877 -0.6830614 -0.12139939 -0.02055351 0.041624296 -0.9303171 0.1986178 0.030998604 0.044264656 -0.11119267 -0.04274591 -0.60063046 -0.07413829 -0.13793458 0.60271007 0.111763656 -0.053141017 -0.22495031 -0.0025741346 0.025915062 0.4049808 -0.4174081 0.036361855 -0.5285874 -0.027481442 -0.2848492 0.035919353 -0.04737877 0.05155265 -0.7050416 0.047410656 -0.52788585 0.33525237 -0.12737943 -0.030685337 -0.020529764 -0.25503466 0.04209537 -0.94068736 0.02175545 -0.3217192 -0.36738858 0.042692978 -0.03424129 -0.77892476 -0.518688 -0.7165536 -0.5878912 -0.02690546 
-0.05838754 -0.022177039 -0.021670567 0.04256062 0.19508381 -0.015268884 -0.014573373 0.032224696 0.12454412 0.059966628 0.026836421 0.28249764 0.11097838 -1.0517071 0.01177159 0.02357192 0.028144898 0.04414774 0.03274363 0.0075840135 0.17727903 -0.28311026 -0.031055594 -0.011407162 0.1963443 -0.058285538 0.08380271 0.026505653 0.09456818 -0.09611625 0.02409188 0.03187481 0.018699197 0.04687392 0.009600823 -0.4524445 0.08991079 0.033984363 0.122159556 -0.025760623 -0.058899168 -0.020918585 -0.035467636 -0.040848 0.07436443 -0.007542557 0.10163018 0.0100857755 -0.036627863 -0.055741902 6.6791246e-05 -0.03309542 -0.010426647 0.16183788 -0.047232788 0.17436594 0.006207622 0.0070592873 -0.03575196 0.05710423 0.12777805 0.07931073 0.14548579 -0.03439982 
0.2507623 -0.014114051 0.005097692 0.027568178 0.2855091 -0.064076975 0.044852328 0.0401374 -0.012797754 0.06690942 -0.00921288 0.25306168 -0.119791515 -0.37650463 -0.0036346272 -0.27687386 -0.20033145 0.022903705 0.02004061 -0.038036738 0.048177633 -0.081754275 0.025932334 0.037964936 -0.2090348 -0.060068507 0.15444078 -0.12193009 0.060967464 0.09830793 -0.04750045 -0.01800597 -0.23156457 0.020554623 0.017275454 -0.09605305 -0.018297326 -0.051241953 -0.031113315 -0.04314932 -0.060887698 -0.000409045 -0.04750183 -0.024241498 -0.070547044 0.020610472 -0.13935246 0.046741508 0.08610768 -0.047705036 -0.042646132 0.07831254 -0.046490654 -0.02421475 -0.064500265 -0.08228258 -0.1103473 -0.013113047 -0.049943555 -0.078515135 0.018022077 -0.13675791 0.06840965 -0.059036463 
0.3939571 0.33883527 0.3669004 -0.19888029 0.3424015 -0.028160006 -0.036131196 0.008043248 0.2222202 -0.12137309 0.010809102 0.15390286 -0.24849401 -0.29814687 -0.0544142 -0.14071985 -0.49651492 0.46712828 -0.017985417 0.040525112 0.11529206 0.58034486 0.0046678036 0.0386816 0.15495375 -0.053641636 0.36809987 -0.13402624 0.27095896 0.21328546 0.14007825 0.045597095 -0.06530615 0.022707704 0.025846675 0.43147224 -0.0924262 -0.040660195 -0.10265337 -0.035640795 0.2699725 0.04460956 -0.0298933 -0.03925923 0.25315157 0.036001395 -0.01857839 0.48389307 0.06253961 -0.052706093 0.0053048753 0.3784864 -0.0015228838 -0.3166011 -0.012099826 -0.73427004 0.036983047 0.015905494 -0.0045226812 -0.038632467 0.26008072 -0.022877607 -0.003673085 0.011519644 
0.30704954 -0.10860447 -0.31839 -0.72685385 -0.26166317 -0.0010516568 0.023668792 0.036991965 -0.6014908 -0.042996407 -0.05431888 0.18035607 -0.8498625 0.8585737 0.020115241 -0.53590983 -0.5638537 -0.28506917 0.018883478 -0.055443797 -0.56707144 0.14755 0.020226462 -0.013801932 -0.26556057 -0.037806883 -0.9121187 -0.4216986 0.39294624 -0.0066605583 -0.47321996 0.030163636 -0.42880037 0.031822633 -0.014750884 0.16302352 -0.66134965 0.0020892108 -0.8794962 -0.05488236 -0.45106062 0.042313598 -0.002438377 -0.0061488077 -0.58465815 -0.05573745 -0.028180638 0.19285235 -0.32634932 0.019661982 -0.048856683 -0.7101873 0.043699164 -0.66777676 -0.02057831 0.38078454 -0.42976522 -0.05289697 -0.04028938 -0.5034334 -0.8341018 -0.49327114 -0.024479087 -0.047724977 
0.5807155 -0.05708453 -0.3976107 -0.9336056 -0.19940248 -0.021943288 -0.038748294 0.039213963 -0.82046616 -0.14815958 0.03975201 0.18393949 -1.1112269 1.0500052 -0.057941284 -0.9367875 -0.9935777 -0.1609734 0.045189507 0.04409957 -0.94681805 0.36211795 -0.048633177 0.016470613 -0.7327268 0.012603244 -0.6591874 -0.5265409 -0.064489454 0.5544074 -0.28877965 -0.0039629554 -0.7117788 -0.014459167 -0.056874443 0.5220054 -0.79828197 0.05227369 -0.9817011 -0.019147657 -0.50813895 0.043710176 -0.04195709 0.023760578 -0.96732795 0.049131256 -0.43641177 0.52327585 -0.0989444 -0.055549614 -0.041985102 -0.3823868 -0.018995833 -0.9642094 0.015236082 -0.524675 -0.650322 -0.011034582 -0.04659267 -0.8906834 -0.7145972 -0.78573066 -0.47157994 0.031139255 
-0.042912584 0.016067933 -0.026290517 -0.03660904 0.0119157545 0.030437794 0.042588543 0.01570182 0.0053734146 -0.016582329 -0.012821469 -0.01421611 -0.0036717355 0.048998866 0.014606897 0.046681676 -0.050153855 0.03886919 0.03345668 0.017377812 0.042214308 0.0068946593 0.040368397 0.02061503 -0.03746506 0.0526325 -0.03809318 -0.054151326 -0.043810453 0.037015427 0.020728294 -0.048068564 -0.03310882 0.0257614 -0.0103617385 0.022071276 0.051374074 -0.0033170506 -0.055150904 -0.011545569 0.0026081465 0.053219404 -0.048685294 0.019375864 -0.033629052 0.044484537 0.017360535 -0.04105661 -0.022271495 0.05058488 -0.05430112 -0.03306765 -0.056000646 0.018146154 0.008838493 0.008354422 0.047674637 -0.052117284 0.04355355 -0.054229878 0.050280724 -0.01348104 0.030272398 -0.0117834285 
0.24231385 -0.23267338 -0.07923172 -0.2863703 0.3117679 0.009623909 -0.024267187 -0.04516693 -0.3581388 0.10211136 -0.010273572 0.55912304 -0.25897804 -0.53234965 -0.019567579 -0.20020619 -0.15894157 -0.07863454 0.0051676105 0.010442467 -0.15498209 -0.40788776 -0.004444126 -0.0062230094 -0.17941387 -0.009830704 -0.68179524 -0.28855643 0.34462023 -0.3095332 -0.5189423 -0.060550444 -0.24576715 -0.023869665 -0.009232639 -0.46645582 -0.5324612 0.034077726 -0.5306 0.030166036 -0.5050702 -0.054866374 0.03490515 -0.045609474 -0.34912056 -0.059815846 0.21862224 0.015141035 -0.040829644 -0.010421126 -0.006769518 -0.41092002 -0.03163063 -0.06177236 -0.009758083 0.46896845 -0.30264622 0.037178792 -0.0575746 -0.049083613 -0.3863432 0.01227869 0.38451257 -0.025797721 
0.26890126 0.021463096 -0.01759221 -0.05081905 0.28688377 -0.010851111 -0.019717319 0.018508764 0.072436675 -0.006155164 0.018683352 0.14080235 -0.09848167 -0.33805966 0.04210122 -0.20352285 -0.23970461 0.058912467 0.011241833 -0.060820162 0.010447634 0.03229866 0.045175306 -0.04571372 -0.1266007 0.033675205 0.10319189 -0.16167109 0.107092746 0.014475524 0.033774562 0.006391222 -0.14407837 0.04033501 -0.026549263 -0.014582302 0.051257804 -0.017352792 -0.022278635 0.035016157 0.011579097 -0.012839046 -0.02557407 -0.037308868 0.009751808 -0.0058901426 -0.056204 0.043808505 0.095564134 -0.054467764 0.0029738392 0.030273162 -0.017368985 -0.033486318 -0.036836892 -0.123099625 -0.13107666 0.0431994 0.025062775 -0.10776793 0.091597244 -0.112349905 0.019313741 -0.04747761 
0.025467206 0.0073736794 0.01819123 -0.050215475 -0.02400095 -0.049578547 -0.028329713 0.053839613 0.03720403 0.03895245 0.023929838 0.035376903 0.011941586 0.00057340413 0.007137697 0.045062717 0.0029412434 0.002144847 -0.028965648 -0.055095773 -0.013967987 -0.011385661 0.030700613 0.012655336 0.0010797866 -0.051652342 -0.03549082 -0.040041856 0.020273145 0.043505702 -0.03435281 0.04290079 0.033730302 -0.05199944 -0.011505257 0.023432244 0.024510566 -0.016422536 0.031345453 0.026672643 -0.042091534 -0.033799842 -0.052275695 -0.044353038 -0.01963063 0.026098188 -0.044043615 0.009253476 0.047177333 -0.051142216 -0.02926731 -0.01922432 0.0062320456 -0.018318553 0.030427437 -0.0021302328 0.012503225 0.033006873 -0.051183917 0.029445034 0.008692715 -0.04224605 -0.013413653 0.007012967 
0.17152362 -0.14331254 -0.25487047 -0.51971966 0.22322397 -0.047108456 0.025762964 0.009531391 -0.500421 -0.04052422 -0.027251203 0.27457684 -0.43304172 0.21532176 -0.03253398 -0.21299547 -0.36763686 -0.3195516 0.03630448 -0.025478909 -0.4491397 0.0277819 0.053659093 -0.021888165 0.016623357 0.014869926 -0.7875844 -0.0693344 0.27610618 -0.048587106 -0.33011043 -0.028714785 -0.00951379 0.03741755 -0.06287001 -0.0146403685 -0.5384984 0.04419302 -0.6070278 -0.027931167 -0.21520807 0.026659578 0.027743159 -0.048643064 -0.42375225 -0.004111409 0.04875817 -0.026927166 -0.026437791 -0.04341904 -0.011908869 -0.5295381 0.031853225 -0.5227476 0.0064830673 0.004710502 -0.20401385 -0.061964124 -0.01228583 -0.43575925 -0.59068406 -0.29916283 -0.097797215 0.0196042 
0.22164533 -0.111537024 -0.17242284 -0.09332336 0.36402103 -0.004314871 0.0314183 0.013516908 -0.1928155 0.039018907 -0.044089537 0.41861224 -0.1764311 -0.5660688 -0.035060126 -0.38307124 -0.21087077 -0.091738224 0.027182074 -0.0213925 -0.2743615 -0.2821727 -0.00625134 0.007725855 -0.19463484 -0.06027171 -0.105952606 -0.20411384 -0.0007013947 0.11759625 -0.104033776 -0.020724127 -0.22584163 -0.03556793 0.009287956 -0.2826718 -0.021120744 0.026122557 -0.17236593 -0.018769486 -0.28209785 -0.044268508 -0.052685615 -0.03435317 -0.28121054 -0.06079124 -0.094707154 0.014574385 -0.056230772 0.01429923 -0.016050357 -0.0065339888 0.006554599 -0.08929975 -0.053205766 0.105680205 -0.29209125 -0.05246565 -0.013990539 -0.15823041 -0.057681743 -0.30368492 0.0534624 -0.03802227 
0.2980042 -0.00073280884 -0.029428871 -0.062745504 0.30532363 -0.04002541 -0.015097866 -0.053674854 -0.06570893 -0.052794613 0.006303113 0.18389328 -0.14116192 -0.17520732 0.010602532 -0.37531066 -0.26697996 -0.012356777 0.020252068 0.0023822822 -0.020126907 -0.012897408 -0.06365822 0.028938165 -0.21944886 -0.039197363 0.11607663 -0.21321617 0.018745083 0.11540689 0.010432944 -0.03099557 -0.17584531 -0.023319885 -0.024160068 -0.00251871 -0.076429375 -0.050317615 -0.09539014 -0.054201733 -0.014010622 -0.018497443 -0.0349495 -0.047954876 -0.063987434 -0.014545823 -0.034710668 0.14762488 0.07796767 0.022737103 -0.06256762 0.08043631 0.012827833 -0.093252 0.04582525 -0.0925108 -0.14000563 -0.05796502 -0.014979508 -0.12933446 -0.00061089743 -0.13363399 0.0032418887 0.018741688 
0.45596385 -0.07027403 -0.41757903 -0.8793941 0.09578326 -0.025640223 -0.0561302 -0.04319821 -0.8283437 -0.13379972 0.0096240565 0.5945104 -0.98370075 1.0527457 -0.0025775768 -0.93567735 -0.9989703 -0.24053897 -0.033224694 -0.029119441 -0.99604195 0.22111744 0.04289018 -0.03243905 -0.662515 0.039780363 -0.5250745 -0.5096748 -0.08682499 0.60298663 -0.16094732 0.030827662 -0.6506186 0.045317758 -0.03136391 0.45661867 -0.71394616 -0.027997512 -0.8581677 -0.029134594 -0.55525166 -0.029591113 -0.00502994 0.03988207 -0.94572616 0.054066446 -0.56852657 0.3809101 -0.030181753 0.0420623 0.0009434952 -0.2406226 0.030095208 -0.98372483 -0.02378476 -0.5546089 -0.7396924 -0.052609038 -0.011325594 -0.8409326 -0.6778945 -0.8478241 -0.48933783 -0.0030828714 
0.084934704 -0.2395945 -0.14126784 -0.32508168 -0.0176103 -0.049455024 0.008669686 0.029148137 -0.13630462 -0.09644839 -0.03582427 0.045941677 0.0065872045 -0.1227243 -0.012873186 0.10363777 0.23934567 -0.26469344 -0.056383763 -0.039704 0.30483857 -0.21476372 -0.00027955495 -0.026696915 0.2893695 -0.018888606 -0.78087217 -0.22128615 0.761313 -0.8212243 -0.6908754 0.0065466887 0.102621235 0.021371001 0.011462114 -0.34159863 -0.53481746 0.021901313 -0.5007677 0.03883666 -0.25407764 -0.012529027 -0.042037975 0.009443046 -0.10291309 -0.036174756 0.8324261 -0.37104806 -0.14538747 0.015644362 0.0076766014 -0.8392273 -0.05455145 0.34804127 -0.041773345 0.77872956 -0.14077297 -0.032961622 0.00926498 0.23391984 -0.6994635 0.4886727 0.6686363 0.039687295 
0.31107864 -0.1625681 -0.3436414 -0.92022777 -0.03391283 -0.008704686 -0.043533005 0.021092683 -0.76795423 -0.095928736 0.019753091 0.16677321 -0.9074441 0.9004858 -0.020498635 -0.6054719 -0.7118521 -0.31504086 0.0046919324 0.004776929 -0.7561235 0.22165956 -0.019360946 -0.0005201496 -0.37843093 0.052026697 -0.95891017 -0.39793023 0.19050875 0.12709074 -0.45583585 0.009848863 -0.4965142 -0.01344125 -0.035259217 0.34278214 -0.7934277 0.013548404 -0.9922123 0.043343667 -0.43896377 -0.055102758 -0.056359388 0.03591626 -0.8135142 0.006467357 -0.26544982 0.31738716 -0.22181837 -0.0055031297 -0.015716316 -0.6594702 0.012630111 -0.8633938 -0.04303296 0.14676926 -0.54812795 -0.06258036 0.037426557 -0.75249034 -0.8658148 -0.73058826 -0.26373458 0.04633053 
-0.028255353 0.025557164 0.05326454 0.0063037723 -0.045015458 -0.018282201 0.032984484 -0.017198201 -0.043108925 0.007998195 -0.00040795282 -0.025400048 0.03261854 0.004283726 0.04476696 0.04603709 0.0309976 0.029333774 0.043052632 0.025000896 0.022710692 0.010811012 0.047259096 -0.0042841695 -0.034451544 -0.0023323968 0.012045484 -0.003170725 -0.04031402 0.008546572 -0.036828883 0.030125994 -0.023864944 0.004654981 0.007090222 -0.016069245 0.04719085 0.02649885 -0.019937761 0.033037577 -0.0140740685 -0.030198304 0.044324916 0.04429997 0.04653592 -0.00076698884 -0.01908774 0.040124077 0.036439735 0.054584485 -0.013814405 0.05246951 0.025460701 -0.013129152 -0.012300488 0.026015904 0.023605693 0.0421045 0.004631266 0.033980254 0.036507454 0.05575678 -0.031528596 0.048112113 
0.25837648 -0.27162144 -0.2585203 -0.3712017 0.4821987 -0.027609147 0.041007433 0.026886653 -0.5962855 0.04193067 -0.051799994 0.6460269 -0.4360467 0.5719514 -0.04312194 -0.56742305 -0.29506066 -0.1850668 -0.010473876 0.00942433 -0.5681046 -0.4070272 -0.040169697 -0.05283366 -0.36373326 -0.038907263 -0.7666693 -0.38424295 0.27118477 -0.18577276 -0.561952 0.030963091 -0.4499068 0.052955568 -0.0038660695 -0.4045507 -0.5205267 0.00554804 -0.6494699 0.01693254 -0.5677734 0.028578112 -0.04608573 0.04036099 -0.664148 -0.035965584 0.040666305 0.054239236 -0.0013219359 0.02583587 -0.06327012 -0.5191619 -0.006482268 -0.25202662 0.02530458 0.5918758 -0.51457185 -0.04725545 0.04623103 -0.22024223 -0.5884395 -0.31422737 0.26039553 0.0047802567 
0.25428194 0.046816405 -0.012659473 -0.08111478 0.24997798 -0.031064652 0.045408133 -0.012889587 0.06223386 -0.017674888 -0.028027384 0.10862729 -0.088605314 -0.23358649 -0.0013218389 -0.19989881 -0.2370498 0.08765889 0.032286555 -0.010903004 0.004437109 0.14289244 0.037722386 0.019962773 -0.08794066 -0.024197571 0.12293488 -0.06438906 0.03286238 0.049364798 0.08918147 0.020642195 -0.13648234 0.00925876 -0.026263181 0.04031386 0.0023737112 -0.021513345 -0.033652432 0.009128104 0.06927566 -0.024020053 -0.036154024 0.044612695 -0.016619852 0.030851709 -0.06278727 0.07030781 0.10226028 0.046918273 -0.013737574 0.04562644 -0.042320643 -0.1177039 0.007631593 -0.22335507 -0.059607454 0.007363721 0.033084594 -0.0512555 0.03150711 -0.12299268 -0.018873222 -0.04977172 
0.0011854246 -0.00602426 -0.00643358 0.02967621 -0.04045003 -0.040260043 0.049009103 0.028804626 0.051242996 0.030195188 0.055963602 -0.00929321 0.029383738 -0.04235287 -0.026166623 0.042941663 -0.00781421 -0.0061673634 -0.031878315 0.022764076 0.051896047 -0.037326686 -0.049534462 -0.008148607 0.014369193 -0.0023826659 -0.04488166 -0.02867261 -0.013406437 -0.056044787 -0.049940247 -0.042381417 -0.011454266 0.048157927 -0.021233242 -0.024809618 -0.00092864037 0.026122283 0.03942878 -0.034438763 0.00869317 -0.0029997304 0.0026806183 0.025916923 0.0002660975 -0.043823503 0.048031796 0.027057175 -0.03900054 0.019652765 -0.0478853 -0.032206036 0.054470744 0.0053141527 -0.030359996 -0.020234656 0.043108333 -0.029097158 -0.028557882 -0.008573998 -0.025923612 -0.045716573 -0.038423643 0.0023599155 
-0.022244642 -0.23055786 -0.4543504 -0.08250859 0.15876909 0.032368217 -0.054280005 -0.02983183 -0.41978264 -0.15820803 -0.028238809 0.2157209 0.13880686 -0.24900943 -0.024314936 0.107381426 0.28382802 -0.356433 0.0192022 0.036486365 -0.0393522 -0.21941262 -0.032190833 -0.046720285 0.3691622 -0.017682632 -0.56544524 0.15164252 0.21311837 -0.1858577 -0.17680778 -0.03329971 0.22643429 -0.03135854 0.0344591 -0.30817425 -0.21550694 -0.0005354052 -0.15219435 -0.051572032 -0.1706245 -0.0048837955 -0.060585957 -0.05060829 -0.18426512 -0.032015495 0.21920915 -0.41383284 0.024887402 -0.040525846 0.02859187 -0.39766914 -0.027856141 0.08796617 0.043771025 0.2569949 -0.007591725 0.009630952 -0.010233871 -0.041011717 -0.4674505 -0.026280833 0.23706964 0.010394227 
0.2541185 -0.1249632 -0.14702128 -0.20968404 0.3211141 -0.018184505 -0.027351886 -0.0069318237 -0.20790954 0.032294054 -0.05097751 0.4720686 -0.20347664 -0.26745868 -0.038884234 -0.48490778 -0.29859537 -0.11209212 0.014463446 -0.058924083 -0.26405865 -0.2763937 -0.046086453 -0.0024124796 -0.2743016 -0.035337254 -0.06742567 -0.32864323 -0.014591177 0.17983496 -0.10156679 0.05573587 -0.4227047 -0.050534204 -0.029582113 -0.30354688 -0.14749895 0.039944194 -0.18663758 0.02137797 -0.2602344 -0.038380746 0.0076835887 -0.05719265 -0.23715818 -0.022107245 -0.14014898 0.023274623 0.02681996 0.03901234 -0.025518404 -0.028116863 0.03624196 -0.08187613 -0.0033382166 0.15137117 -0.4153413 0.03691158 -0.030404473 -0.18422723 -0.048961543 -0.32886785 0.108554624 -0.029895835 
0.3050012 0.051118203 0.042337563 -0.008826292 0.22494073 -0.04982435 -0.025012532 0.029114107 0.04474491 -0.024660192 -0.04723796 0.054646436 -0.09160947 -0.22314073 0.026177866 -0.2086537 -0.28253052 0.057628702 -0.047415536 -0.049951166 0.03091156 0.08523048 -0.00074822386 -0.031751294 -0.17451943 -0.06001328 0.074812375 -0.08335963 0.124371 0.07872721 -0.06196485 0.023625815 -0.1640497 -0.017042875 -0.043883808 0.09264155 0.0029644899 0.023103675 -0.04387393 -0.024247361 0.072160944 0.03815926 -0.026154382 -0.03337387 0.060452987 0.03126501 -0.018594652 0.11298931 0.1139622 0.008494608 -0.059061263 0.066157065 -0.013153719 -0.054676916 -0.028131213 -0.18560801 -0.053946167 -0.05110082 -0.03986394 -0.056531627 0.04128121 -0.057327654 -0.063101076 -0.054474693 
0.31411773 -0.20548496 -0.5486064 -0.85694164 0.12723447 -0.002554473 0.004171154 0.0012081014 -0.9018006 -0.07612702 -0.021313189 0.32228807 -0.9528975 0.9687712 0.0035501681 -0.73706377 -0.8137164 -0.37267077 0.044335183 0.04470218 -1.0312059 0.090356015 -0.036950566 -0.049555488 -0.5052296 0.00905605 -0.7259932 -0.45851916 -0.18669306 0.52029663 -0.25217426 -0.014871271 -0.5596439 0.041885074 0.049128044 0.28534418 -0.6130989 0.0033351295 -0.80304015 -0.026971757 -0.5438462 0.042443126 0.00072318484 0.041183714 -0.95387423 0.0500733 -0.59203786 0.16640201 -0.058913726 -0.012370986 0.037766308 -0.48727176 0.009258534 -0.97147804 -0.014382741 -0.23287532 -0.5627729 0.03217226 0.050008964 -0.83810806 -0.77282995 -0.83899754 -0.5137863 0.024000894 
-0.29607424 -0.45138136 -0.5756676 -0.16076449 -0.046051364 -0.045777895 -0.013203938 -0.00839799 -0.6174792 -0.22693075 -0.015360907 0.06520459 0.059797317 0.18711677 0.025431491 -0.050353326 0.35189286 -0.6412541 -0.056510128 -0.04164216 -0.27082258 -0.5309207 -0.03899967 -0.0010564199 0.19431686 0.023982257 -1.0126668 -0.23496297 0.32210138 -0.53666276 -0.658398 0.042304676 -0.022828007 0.040842716 -0.04826736 -0.41363636 -0.52407354 0.008165584 -0.41751826 -0.032150786 -0.50066805 0.02302728 -0.049176034 -0.055201765 -0.41425177 -0.050731856 0.4979117 -0.55609936 -0.0930918 -0.04168812 -0.022756696 -0.8564248 -0.019231837 0.17242596 -0.02132227 1.0718801 -0.38177368 -0.016977767 -0.018444745 0.090644315 -0.9290411 -0.080595575 0.39630684 -0.0043127583 
-0.0033028459 -0.05946279 -0.0473023 -0.12792909 0.037596766 0.03478411 -0.057445668 0.020912355 -0.079130694 -0.1781335 0.009884555 -0.007563638 0.123901136 -0.25958282 0.04333572 0.20619887 0.24591783 -0.14977525 -0.05740553 -0.048998516 0.34613147 -0.06302698 0.011568228 0.010450023 0.3895277 -0.04780361 -0.5824949 -0.036262743 0.6738195 -0.5508696 -0.36445263 0.010061825 0.26056442 -0.055680685 -0.0030799613 -0.18308651 -0.38678023 0.012874635 -0.38722187 -0.037924916 -0.03853897 0.04257282 0.03623547 -0.003075314 0.077560276 -0.022120718 0.65446174 -0.21747856 -0.100711346 0.048419807 -0.051831566 -0.56312525 0.033969756 0.20499805 -0.030456224 0.3867289 0.015747428 0.04209459 -0.045040376 0.121263415 -0.4896168 0.41605088 0.46658894 0.037017427 
0.050990645 0.024848308 0.0557202 0.04410557 -0.02418463 0.0063014813 -0.053004675 0.0097761415 -0.017557438 -0.028565284 0.01846717 -0.033037696 0.023860764 -0.054142613 -0.04353674 -0.014629565 -0.04729455 0.05003641 -0.05528213 0.026546363 -0.048453324 0.0019624531 0.05256481 0.0015649386 -0.0041742325 -0.016539365 -0.028272765 -0.053009413 0.007600751 0.04348928 0.042932514 0.04282183 0.009551611 -0.028936177 0.0070648976 -0.0280104 0.0033762045 -0.04137674 -0.049285963 0.0033145063 0.016831975 -0.024328627 -0.03804893 0.045033913 -0.053129975 -0.049137697 0.00244442 0.015765805 0.05510101 0.014310423 -0.033008896 0.008761693 0.044593763 -0.03471379 0.047453184 -0.0037879758 -0.0423922 0.031532716 0.04007243 -0.006900452 -0.02718127 0.05430259 -0.027628906 -0.037392788 
0.26630366 -0.29107785 -0.37463316 -0.24574289 0.44652045 0.0062976177 -0.03863375 0.022826828 -0.6709134 -0.014589994 -0.05982023 0.6006117 -0.35528803 0.52276886 0.0038501068 -0.6000116 -0.24545826 -0.27481824 0.02994211 -0.054493874 -0.5347214 -0.47635978 0.00065701606 0.0030761375 -0.4023444 -0.039793897 -0.69090074 -0.48125315 0.27760822 -0.18016794 -0.6249041 0.02320104 -0.495505 0.0016350521 -0.05560661 -0.38732734 -0.51788014 -0.015473095 -0.5247355 0.024159314 -0.6418089 -0.019756284 0.011338229 -0.0069729015 -0.69879544 0.044669203 0.11376714 -0.05857344 0.08801681 -0.034296185 -0.05608633 -0.6353916 0.014085589 -0.15821669 0.04581211 0.6903816 -0.6669585 0.01484004 0.025454944 -0.11835106 -0.6537598 -0.37196136 0.30126148 -0.024689185 
0.28249535 0.0843623 0.03662227 -0.08497792 0.21868606 -0.026201146 -0.03228255 0.008032798 0.131808 -0.053509384 0.011674779 -0.012960715 -0.12908421 -0.20461722 -0.016175589 -0.09436148 -0.262799 0.051658977 -0.049081538 -0.003853653 0.10409882 0.14286682 0.008671257 0.017012697 -0.0932728 -0.025500095 0.07788657 -0.0472009 0.08035009 0.021018157 0.007353848 -0.03902538 -0.01830801 -0.058339972 -0.051220443 0.18482795 0.071569495 -0.055075306 -0.09092915 0.03706083 0.10457974 -0.006625872 0.030394945 -0.045164503 0.0037250272 -0.01588923 -0.074190356 0.12607197 0.03650951 0.013412255 -0.04345372 0.04933253 0.036695786 -0.1634382 -0.01485362 -0.29131234 -0.0339947 -0.026784552 0.022547517 -0.111379266 0.06508805 -0.04839995 -0.08694499 0.0271185 
-0.029421303 -0.011602357 0.019304413 -0.028651569 0.012385394 -0.040742934 -0.026911128 0.04168066 -0.045690328 -0.03364238 -0.026285551 -0.022272687 0.005660448 0.0056369863 -0.01621474 0.022620987 -0.0036572404 -0.0341613 0.05422463 0.042343315 0.05263781 0.016801652 0.003121335 -0.00515965 -0.0071909614 -0.025961421 -0.03143317 0.052990753 0.021095734 0.015484083 0.053595867 0.0031334348 0.05384435 -0.041406386 -0.020162933 -0.009236127 -0.036396477 -0.005530946 0.03470629 0.0020319 -0.00071309507 -0.050535347 0.038269553 0.022734951 -0.055440556 0.02907445 0.05057242 -0.009961091 -0.033077125 -0.042667244 0.030423474 -0.019820772 -0.0091347955 0.03437009 -0.014980238 -0.04576351 -0.0044890493 -0.05316274 -0.03441273 -0.056127954 0.0033675581 -0.054947574 0.049108546 -0.022846952 
-0.052501377 -0.61589766 -0.86468744 -0.029601783 -0.060795467 -0.05407683 -0.054348595 0.0169496 -0.83453935 -0.12947704 0.043739308 0.093974 0.040815014 0.23099993 0.01834156 -0.39391002 0.2961369 -0.75904125 0.028683819 -0.015737593 -0.60011065 -0.68624383 0.010188467 0.027675899 -0.057264414 0.034451447 -0.673295 -0.18076907 -0.44227585 -0.017649442 -0.4531705 -0.0034904247 -0.2470332 -0.037291158 -0.016137512 -0.5207386 -0.40637746 -0.0047922013 -0.21170771 0.022836449 -0.6169494 0.00080687425 -0.052743226 -0.030721541 -0.64005417 0.014374649 0.13114676 -0.6357245 -0.015030002 -0.030770313 -0.03150614 -0.55508083 0.051820528 0.06521635 -0.013224548 0.7013058 -0.4720871 -0.022391016 -0.02860424 -0.030572273 -0.72652394 -0.4816935 0.1346732 -0.015722144 
0.21300459 -0.19257562 -0.114909105 -0.08077069 0.241951 -0.057993565 0.036633972 -0.0055324426 -0.22895826 0.012703148 0.0331997 0.32320058 -0.06885388 -0.36568514 -0.043294236 -0.42834923 -0.101480246 -0.1371365 -0.033688877 -2.3872057e-05 -0.124692604 -0.17980267 0.0028297068 -0.044508975 -0.3113722 0.042118113 0.045188956 -0.34108484 -0.04985848 0.048110977 -0.179066 -0.05329228 -0.35914168 -0.012189034 0.05530435 -0.23430753 -0.056390643 -0.037164994 -0.108383454 -0.030667663 -0.19329016 -0.033486698 -0.057790995 -0.026388627 -0.24059503 -0.03439246 -0.025899619 -0.073237285 0.080910675 -0.033066273 -0.013436585 -0.12031933 0.01744682 -0.034304954 -0.036174174 0.14447436 -0.34260076 0.005889302 -0.028888907 0.07318505 -0.115391806 -0.14925182 0.14772634 -0.011568881 
0.27731237 0.10188308 0.13024825 0.027171372 0.17840934 -0.032803345 0.0044086706 0.01870936 0.0828771 -0.05899918 -0.038279045 -0.019687837 -0.08425344 -0.19383226 -0.02534821 -0.061747886 -0.18581423 0.103570744 0.017817188 -0.0029960282 0.061804 0.18104695 -0.044720996 -0.04126075 -0.048786614 0.025408827 0.15155356 0.0029152383 0.14785613 0.005494107 0.020212509 -0.024883896 -0.0077713216 -0.04692775 0.03493228 0.17535706 0.085412405 0.051113136 -0.07430294 0.03498823 0.14184359 -0.022940619 -0.0002154472 -0.023856845 0.049330924 -0.035231527 0.028129412 0.094901 0.060085814 0.010085988 -0.049138077 0.13777326 0.016137827 -0.08546792 -0.04842568 -0.292452 -0.016933473 0.014080849 -0.0036722498 -0.09699481 0.094243914 0.027590888 -0.04091771 -0.012963931 
0.0642392 0.09609712 0.15760627 -0.1251252 0.15722132 -0.006754482 0.034461793 -0.021893412 0.1580731 -0.09359134 0.0449815 0.09479218 0.08741828 -0.496371 -0.017587591 0.14584714 0.049362347 0.069842756 -0.051937692 -0.024725484 0.25203758 0.14793357 0.030188175 -0.055678096 0.45021695 0.017573843 -0.26567033 0.17315564 0.53624505 -0.2718566 -0.080380745 0.04111943 0.29742596 0.031368177 -0.05667673 0.08234593 -0.11902912 -0.041017078 -0.22812034 -0.049122658 0.14340773 -0.010139059 0.028236793 -0.058118314 0.162896 0.031275276 0.27912438 -0.06888705 -0.08368642 0.02562116 -0.044171833 -0.11914665 -0.016830316 0.03577548 0.0040524597 -0.20758401 0.16727465 -0.033102628 -0.034538217 -0.08487571 -0.13167463 0.23640747 0.12357389 -0.04203504 
-0.41237697 -0.6290047 -0.9239557 -0.055744205 -0.27212563 -0.023338342 0.0016404116 0.03805482 -0.86646557 -0.22605458 0.0003127579 -0.19461204 0.15450373 0.7525911 -0.057437707 -0.47298786 0.27230725 -0.83093786 -0.0578521 0.014720231 -0.5901396 -0.73121506 0.0065389816 0.03605961 -0.10174779 0.019206226 -1.054284 -0.43643424 -0.03834559 -0.24941814 -0.7087774 0.022575432 -0.41290548 0.011126784 -0.025516862 -0.53588647 -0.5626014 -0.020581195 -0.37502804 -0.022229416 -0.7310562 -0.021875702 0.041344974 0.019886753 -0.7735334 0.05125128 0.3093878 -0.7632568 -0.08713447 -0.060584255 -0.02046632 -0.8247003 0.029609738 0.030987429 0.01479883 1.131593 -0.61150914 0.022071099 0.030256689 0.069632016 -1.095873 -0.3582517 0.29917595 -0.050589323 
-0.21894309 -0.49131843 -0.61697775 0.013162653 -0.13175525 -0.065368466 -0.017081833 -0.05498887 -0.5695293 -0.15814528 -0.017132796 -0.10223501 0.2535721 -0.0072312113 0.03492595 -0.031745788 0.48266393 -0.5796252 -0.06393483 2.7271693e-05 -0.19073758 -0.5167376 0.0071707447 0.01153546 0.35820422 -0.006158325 -0.7041738 -0.01757907 0.1533349 -0.42033157 -0.4398552 0.020560248 0.04175965 -0.034272157 -0.031215692 -0.4291673 -0.4028977 0.03260337 -0.15244998 0.031565875 -0.41722327 -0.026792482 0.014313377 0.004019043 -0.34038866 0.005204496 0.42516166 -0.5839787 -0.14318341 0.036129884 -0.056594722 -0.5639374 0.0056066057 0.16648859 -0.0382524 0.7792538 -0.2001795 -0.062629394 0.023244029 0.19419453 -0.74980164 -0.07766851 0.34775886 -0.031776365 
0.016275559 -0.034389883 0.017080102 -0.012096114 -0.041854963 -0.042445377 -0.04487434 0.050366107 -0.013012014 0.0075827353 0.002849631 -0.009495173 0.011638332 0.04449291 0.050556753 0.020347673 -0.043796748 0.029944103 -0.016835432 -0.012365907 0.03323364 -0.019320738 -0.01989654 0.035323266 0.04806238 0.019765537 0.017610852 0.0066932254 -0.019285109 -0.05150228 -0.0006285198 0.043425214 -0.025110247 -0.014112346 -0.048628587 0.05016033 0.04716162 0.026062336 0.03427579 -0.053420514 0.00688779 0.016700257 0.010655221 0.046838287 0.01975112 -0.024797156 -0.023954347 0.045575444 0.015427779 -0.021873914 -0.030748583 -0.04003308 6.362796e-05 -0.0012220293 -0.0155818835 -0.0482635 -0.00067665055 0.045057256 0.002269946 -0.0018190965 0.040229555 -0.032160982 0.021916557 0.02001762 
0.0019084883 -0.42849976 -0.4498246 0.08583267 0.3952942 0.010052297 0.043565627 -0.053237353 -0.56386524 -0.07730901 0.009719547 0.47790363 0.15282671 -0.4078938 0.040260326 -0.46429816 0.21464026 -0.5128256 0.026308902 -0.03718598 -0.08924223 -0.42569372 -0.008778586 -0.058034286 -0.281567 0.027495394 -0.49121827 -0.5723379 0.17679073 -0.45999613 -0.72735035 -0.014372752 -0.4333809 0.05250049 -0.018356979 -0.43927312 -0.3168648 0.030916985 -0.2656907 -0.034158025 -0.52495855 -0.007579668 0.043636523 -0.035358347 -0.5320172 -0.015365482 0.45122638 -0.38253495 0.21675882 0.023406178 -0.040915836 -0.70424604 0.028932571 0.3147024 -0.028148819 0.6783298 -0.5945274 -0.052600678 -0.027600257 0.29984856 -0.66180617 -0.00750655 0.435808 -0.01290718 
0.2149429 0.12788 0.13829453 -0.022719359 0.16997321 0.03984409 0.016420674 -0.00087429 0.10316644 -0.08135721 -0.016390653 -0.030357813 -0.1470446 -0.11431962 -0.01634277 -0.047532927 -0.17684239 0.12975308 0.038322724 -0.02004821 0.042025704 0.19479539 0.011588336 -0.041813575 -0.018450977 0.032687206 0.08825826 0.012221033 0.078294225 0.11823509 0.031139323 0.014707775 0.03640141 -0.0016313957 -0.054855663 0.147447 0.031798612 -0.012452023 -0.017757742 -0.06347764 0.17513771 0.022765884 0.047459904 -0.032392975 0.05742649 0.041479886 -0.06425254 0.09751151 0.024053242 -0.050005477 0.014923476 0.1099085 0.005377814 -0.1939715 0.015780158 -0.35706955 0.0025809486 0.00806456 -0.019209107 -0.12568033 0.13981713 -0.1096948 -0.20007104 0.002675402 
0.04993287 0.0055398718 -0.04923185 0.043396357 0.015049789 0.036170047 -0.024545152 -0.034648716 -0.020581514 0.050051052 0.012724597 -0.023376767 0.027418915 0.031242382 0.018655282 -0.054038994 -0.0012188032 0.031267848 -0.055477068 -0.05559245 0.0058637485 0.055658605 0.052615944 -0.020966087 0.02812605 -0.0150010735 0.03153917 0.044777784 0.007594619 -0.018399443 -0.020707257 -0.04113765 -0.019142788 0.017509121 -0.0071286857 -0.024416253 0.0504721 -0.04800075 0.040818524 0.018356767 0.043013457 0.011811841 0.0075450577 0.0029660985 0.004364405 -0.05467972 -0.049551297 -0.046850108 0.02654836 -0.041237764 0.041030098 0.042169254 0.044698637 -0.03761939 -0.02656834 -0.018906843 -0.029556507 -0.00773542 0.03832833 0.046866033 0.042093623 0.045290593 -0.018572245 0.008202914 
-0.2850044 -0.74833626 -0.9969944 0.15683617 -0.23777282 -0.015973525 0.004854795 -0.051033873 -0.956857 -0.18457875 -0.009378724 -0.18089917 0.37505257 0.5402886 -0.031965647 -0.6651955 0.606996 -0.9280235 -0.009317593 0.00010651511 -0.6531733 -0.6638748 0.010634344 0.02371638 -0.34804392 0.038147353 -0.5871956 -0.4796 -0.5745996 -0.067064196 -0.7583124 0.025788998 -0.6165447 0.015001909 0.03995895 -0.5713604 -0.3862947 -0.011439825 -0.084323265 0.012828906 -0.76575625 -0.020524714 -0.021869252 0.025032183 -0.88438654 0.034560878 0.19917846 -0.7387354 0.08794353 0.010249845 0.022823118 -0.67167085 -0.020441432 0.29361022 -0.04909059 0.89680505 -0.75003624 -0.05717926 0.02019917 0.39094985 -0.9099834 -0.39602163 0.3050848 -0.025381217 
0.19042414 -0.10666159 -0.06282542 0.25019175 0.31443068 -0.0036066954 0.042557433 -0.011210603 0.02137904 -0.10508005 -0.04293926 0.16124134 0.27312088 -0.795527 -0.03848101 -0.11239265 0.19170502 -0.12378645 -0.0022907767 -0.025915815 0.28998634 -0.0117973285 0.038157314 0.0013620665 -0.10697079 -0.036839753 0.28658023 -0.14986114 0.11064518 -0.17419972 -0.22101985 0.030661488 -0.07404479 -0.0237459 -0.054468766 -0.15397327 0.11483507 0.023018356 0.082722336 -0.0069515826 0.017000806 -0.06507054 0.038867578 -0.052802384 0.09350339 -0.015503709 0.172895 -0.17938158 0.14868072 0.044186838 0.035200465 -0.018453648 -0.0418176 0.2851147 0.005274814 -0.14689302 -0.056538016 0.005171831 -0.0048398944 0.28821835 -0.03639165 0.27734217 0.17435095 0.021905076 
0.19732577 0.039734114 0.019741377 -0.07663683 0.13397491 -0.066309534 0.01017588 0.032362804 0.14511468 -0.07346947 0.025967555 -0.1409635 -0.11406588 -0.0018914496 0.02905734 -0.017094744 -0.23326173 0.078191556 -0.03439789 0.010762493 0.06500411 0.1968218 -0.022277426 -0.032396384 0.007907799 0.021162087 0.10952875 -0.039656166 0.13454807 0.037911464 0.041365523 -0.035128497 0.018918395 0.037648793 0.021268187 0.15451081 0.007985376 0.0002465654 0.015354243 -0.058993027 0.11781155 -0.014609648 -0.045359395 -0.038312823 0.020070942 -0.024983533 -0.048782595 0.06602077 0.10027918 0.033428285 -0.038791288 0.11301479 -0.06033544 -0.11627182 0.00391422 -0.35546446 -0.028790483 -0.013215782 0.012548459 -0.20385316 0.12302003 -0.11034496 -0.1876954 -0.03381268 
-0.11072189 -0.28657746 -0.34062833 0.29357362 -0.064399876 0.026754234 0.015444527 -0.02948655 -0.135446 -0.1479771 0.04417169 -0.1563979 0.54630846 -0.59362304 -0.0006433502 0.2062531 0.69864345 -0.372457 -0.055219516 0.053260446 0.19778837 -0.26885733 0.011973159 -0.05298133 0.49987248 0.02333363 -0.2266136 0.15199123 -0.044812486 -0.3033812 -0.22984731 -0.0109533565 0.28265232 -0.024081184 0.040820412 -0.2740045 -0.0075818133 -0.01921474 0.13933787 0.016048811 -0.08187653 -0.0017568998 -0.0080473535 0.053640485 0.0010672648 -0.014710832 0.35956872 -0.45110935 -0.023902137 0.014959003 0.029207116 -0.24991457 -0.017526794 0.3647953 -0.011952173 0.26150924 0.05554422 0.027170256 -0.049492583 0.2803777 -0.33011946 0.18190522 0.31259608 0.0008355346 
-0.36698142 -0.70556605 -0.90139854 -0.17261994 -0.2617564 -0.025580475 -0.05956526 -0.04884182 -1.025248 -0.21432106 -0.047724593 -0.09983573 0.064007506 1.0702608 0.046164114 -0.68951106 0.06333968 -0.86249095 0.019559704 -0.054982807 -0.72963864 -0.6043218 -0.061498147 0.038826358 -0.3407492 0.004769912 -1.0224291 -0.53259546 -0.16812298 -0.13882709 -0.71986467 -0.062550955 -0.49935326 -0.022652132 0.02561388 -0.34952804 -0.69598067 -0.04694559 -0.3753881 -0.04849924 -0.73428684 0.034971908 -0.012574963 -0.02382051 -0.926566 0.015111742 0.01129429 -0.7156291 0.05637249 -0.0039279265 0.038884625 -0.8181856 -0.05280092 -0.17794715 -0.015218823 0.96207464 -0.77656496 -0.008545359 0.035947822 -0.02605239 -1.1202767 -0.56293184 0.11278409 0.037908822 
-0.35795826 -0.782029 -0.9630246 0.042807326 -0.34824684 -0.064683646 -0.031641424 0.04262233 -0.9375994 -0.15600625 -0.033795632 -0.29403675 0.3091764 0.61906165 -0.051993363 -0.45459402 0.4998287 -0.829614 0.027367985 0.0026517827 -0.6794539 -0.65364903 -0.046572357 -0.022297813 -0.05505815 -0.009804853 -0.84534115 -0.37584445 -0.33971295 -0.24474736 -0.6835388 0.020112613 -0.41008165 0.00036581425 0.04330562 -0.5826792 -0.5536873 0.01837788 -0.20963599 0.053150784 -0.7690149 -0.03627543 -0.016341746 -0.024519486 -0.8163905 -0.0026984632 0.27069676 -0.839258 0.09598555 -0.009126467 0.00677589 -0.813524 0.01790766 0.15959066 0.040144365 1.0707805 -0.6424751 -0.029419307 -0.026811834 0.15547904 -0.9393675 -0.3883859 0.28837857 -0.046760764 
-0.02747617 0.025985193 -0.009906098 0.025246028 0.025156554 -0.044285033 0.009133127 -0.034133688 0.05273618 -0.010583349 0.0418819 0.021107797 0.039325338 -0.03952825 -0.025222471 -0.019373205 -0.02967201 -0.047465447 0.014064606 0.05457941 -0.015567534 0.03641441 0.03493208 -0.009091981 0.051795926 0.038035143 -0.011510491 -0.0110376775 0.02056298 -0.018058691 0.031503525 -0.032941557 -0.014755227 -0.032825135 -0.025760235 -0.03463371 -0.054898497 0.045242306 -0.006349195 -0.016089052 0.009947453 0.044199843 -0.051943842 -0.009044457 0.040558223 -0.037720293 -0.009701084 0.019630063 -0.04146526 -0.004258793 0.01295327 -0.0022972114 0.028319981 -0.03586273 0.038317483 -0.010328494 -0.0008060299 -0.02822734 -0.031234752 -0.014061727 0.017152753 0.02615023 -0.026171522 0.020414043 
0.07156496 -0.5074439 -0.5509595 0.25535983 0.44728315 0.010606683 -0.0274493 0.033398975 -0.53879595 -0.13190904 -0.03971484 0.24171102 0.41648257 -0.64345765 -0.006886196 -0.2964192 0.43611056 -0.58295244 -0.00026211987 -0.06516743 -0.01731045 -0.4080926 -0.03603174 0.0074087214 -0.263235 -0.020708052 -0.4168937 -0.3920971 -0.16063634 -0.655113 -0.5716939 -0.01682305 -0.24270931 0.046643864 -0.00022138546 -0.32281566 -0.22717325 -0.05383826 0.006569349 0.027439162 -0.48298085 -0.014418103 0.020171653 -0.058609508 -0.39522937 -0.0413458 0.25677818 -0.49367148 0.25881115 0.046519864 -0.01782847 -0.6139845 -0.044189673 0.36359048 -0.059334885 0.30685216 -0.3921935 0.03754742 -0.04244213 0.3020764 -0.54122883 0.064654775 0.40900573 -0.039480537 
0.21532936 0.06791269 0.083037876 -0.0023363796 0.11825194 0.03688772 -0.042022254 -0.008924516 0.024654884 -0.0549864 -0.031869553 -0.16226038 -0.13874412 0.04916602 0.02973435 -0.084420584 -0.1829409 0.04971453 -0.02409194 -0.025188312 -0.02254985 0.16008385 -0.026628675 -0.015017109 0.001677873 -0.0465918 0.063187204 0.06348887 0.0919061 0.071449496 0.10970429 -0.046943266 0.023816224 -0.016876074 -0.0036318859 0.21765946 0.053028047 -0.027896063 -0.053848706 -0.0064903325 0.05766565 -0.022096042 -0.04071175 0.003690386 0.00053535984 0.01611921 -0.099960655 0.099448696 0.03328154 0.030138556 0.044921007 0.114165105 0.004305642 -0.20126203 0.045526728 -0.38768923 0.05473001 0.026438897 -0.024789589 -0.11305678 0.0736503 -0.14274478 -0.20913363 0.04719829 
-0.004705265 0.043018315 0.014989201 -0.0365104 -0.044663906 0.0037263148 0.015825402 0.02466407 -0.0017793067 -0.03228741 0.030925881 0.042265434 -0.012849227 0.056112777 -0.0025711656 0.044930484 0.04228848 0.01164655 -0.05199323 0.01704995 0.016740661 0.035917748 0.03883983 0.0039178245 0.048058968 0.053778555 -0.020727761 0.05117992 -0.030953972 0.01450618 0.05278499 -0.054104056 0.05206119 -0.055058032 -0.016056959 -0.017580498 -0.023439255 0.023284014 0.048464928 -0.052029353 -0.028033689 0.054460358 -0.00096135214 -0.046243884 0.020084556 -0.019432615 -0.046965223 0.007349614 -0.009242859 0.04572506 0.02275071 -0.011126708 -0.008462794 0.032774772 0.002256818 -0.024670895 0.055167515 -0.024736125 0.028650496 -0.009805478 0.024887268 0.044733163 0.012299541 -0.027308764 
-0.3716614 -0.6757299 -0.9661293 0.30335182 -0.18934797 -0.031329814 -0.021383703 0.024080839 -0.8791106 -0.15257809 -0.034722403 -0.4857542 0.35260776 0.42233524 0.016057078 -0.47987673 0.73722845 -0.8759256 0.018993871 0.005084644 -0.64269215 -0.5646833 -0.008996147 -0.043904226 -0.15724014 -0.04256449 -0.4161717 -0.3227371 -0.673875 -0.03948756 -0.49528024 -0.041475613 -0.31905887 -0.032161266 0.035538234 -0.5061572 -0.16469844 0.0013476238 0.11375202 0.054229233 -0.6929398 -0.0166136 0.021268224 0.016812405 -0.75601554 0.047569383 -0.0500165 -0.79787576 0.030916944 -0.037441105 -0.012268289 -0.5696274 -0.015450419 0.2819966 -0.050507225 0.6871386 -0.5340676 -0.054118026 0.053085722 0.27038884 -0.73839694 -0.4743213 0.12773 -0.019669475 
0.39125264 0.08462008 0.12467023 0.20382544 0.25820437 -0.037108142 -0.030408576 -0.03025708 0.22366072 -0.11870528 -0.04422837 0.08241769 0.1567908 -0.74060214 -0.033638734 -0.012060697 0.06613367 0.11861048 0.03187027 0.013033683 0.4221247 0.08239528 0.040277578 0.04651761 -0.002045255 0.0318073 0.23893806 -0.014265909 0.18336448 -0.21763436 0.031866994 0.023529831 0.016671006 -0.009345195 0.030750759 0.06950729 0.0481196 -0.0057457 0.11777264 -0.05713197 0.16517937 -0.019960722 0.03290339 -0.02744261 0.23378804 0.020233626 0.15993911 0.04582837 0.13374858 0.036206722 0.039797056 0.051234275 -0.060894176 0.2168837 0.009881516 -0.55341697 0.1453723 -0.018385166 9.8306395e-05 0.013749175 0.13579153 0.22873096 0.06007883 -0.05533277 
0.18257456 0.06802772 0.012993267 -0.10143079 0.09405364 -0.034909394 0.034931682 -0.037029296 0.0070405826 -0.08950869 -0.04501902 -0.15914184 -0.17713898 0.06458984 -0.0038682735 -0.1411885 -0.21522625 0.054959822 0.010805153 -0.062667616 0.012305277 0.17142715 -0.04118364 0.025129806 -0.06818077 -0.037855815 -0.026804551 0.049129587 0.11312032 0.16480131 0.114750035 -0.028805189 -0.076564714 -0.028636258 -0.0606526 0.20341584 0.03088576 -0.0040747477 -0.021276565 -0.023465559 0.09477408 -0.041887425 0.023671994 -0.019841457 -0.06377992 -0.040099643 -0.08478582 0.08460092 0.08264008 -0.013167022 -0.040275548 0.03847347 -0.0008684224 -0.2484167 -0.025033422 -0.36345243 -0.07240483 -0.04696557 0.03095475 -0.24705386 0.044130187 -0.17670344 -0.21729758 -0.018977469 
-0.22716431 -0.6370732 -0.8395837 0.17409137 -0.123774104 -0.023739621 -0.04278061 0.026638066 -0.62540555 -0.22833042 -0.021300817 -0.3651128 0.43197095 0.02229358 0.048138093 -0.31833908 0.73000354 -0.73094225 -0.033378728 0.019327054 -0.30141783 -0.507709 -0.04885818 0.006974438 0.0756966 0.031505574 -0.4221473 -0.37159026 -0.42152774 -0.2752769 -0.60146767 -0.027986888 -0.19646174 -0.0117379865 0.008426021 -0.42159492 -0.2899962 0.024522291 -0.013484187 0.038740896 -0.539858 -0.005309312 -0.05290114 -0.0013168554 -0.5516574 -0.026469193 0.30820572 -0.7216155 0.082727335 -0.02116901 -0.05468067 -0.5650809 -0.028159577 0.36880764 -0.04288568 0.7839373 -0.4706545 0.032978915 -0.023185764 0.38623872 -0.70942724 -0.13223165 0.3261251 0.026314218 
-0.35539016 -0.52053416 -0.82603586 0.0842092 -0.09880946 0.0034586082 0.046299305 -0.020231307 -0.8570435 -0.29635927 -0.02033817 0.0029386766 0.27745742 0.9065475 -0.00664435 -0.543902 0.27189434 -0.79072917 -0.003101633 0.0152645055 -0.6585569 -0.5815093 0.03994386 -0.008472578 -0.21052866 -0.047701243 -0.80385125 -0.39726278 -0.3261737 -0.15553655 -0.4726623 -0.0022095954 -0.3426515 0.001944738 0.017315106 -0.36034283 -0.41475943 -0.056563817 -0.14927356 0.052967932 -0.7368116 0.0011119514 0.0025532318 -0.002609045 -0.7529528 0.04284266 0.034401834 -0.669332 0.06416199 0.015683377 0.034698144 -0.66645616 -0.027963836 -0.025505709 -0.009478215 0.82661957 -0.6299571 -0.023662418 -0.051187012 0.20127055 -0.8272418 -0.39788374 0.20959675 0.04643512 
-0.335482 -0.71834123 -1.0171323 -0.14553115 -0.20876718 -0.018076498 0.021994483 -0.026693372 -1.00625 -0.17974271 -0.0005138948 -0.32963398 0.027818404 0.9221994 -0.033865664 -0.57634664 0.28507718 -0.8935283 -0.01953184 0.0032080074 -0.8271995 -0.58983535 -0.037618868 0.017542608 -0.28570578 0.030316602 -0.9047705 -0.45312682 -0.51405734 0.010663363 -0.61338264 -0.04352086 -0.5080659 -0.03792814 0.027895238 -0.35137203 -0.5539121 -0.05215051 -0.2848144 -0.039894745 -0.7390867 0.03214157 0.02261215 -0.02350215 -0.9129631 -0.021165086 -0.11598899 -0.6813606 0.16638969 0.00089873845 -0.03280267 -0.7747179 0.003478294 -0.1308029 -0.013185976 0.8285997 -0.6893261 -0.048299324 0.018367296 -0.0499096 -0.9831111 -0.6431911 0.061759803 0.029662676 
0.03662039 -0.030347014 0.033900063 -0.015965383 -0.04768679 -0.012989812 -0.034453593 -0.04843183 -0.033869572 0.041084755 -0.052874986 0.045355868 -0.044138093 -0.014995508 -0.020806164 -0.02857235 1.9472092e-05 0.055528264 -0.00085664913 -0.055106577 0.016410235 -0.020693377 -0.015520103 -0.0011802316 -0.048832558 -0.052834164 0.012604367 -0.017420761 -0.0009653382 0.0003809072 -0.012636129 -0.028411811 0.009496603 0.03605936 -0.045470256 -0.00862566 0.033479836 0.0050381906 -0.041966315 0.021805 0.0070095547 0.05417977 -0.054539513 -0.03607387 -0.03677409 -0.02747669 0.025322955 0.023122977 -0.015432399 -0.013865896 0.053432975 -0.017867088 0.0073702224 0.032956567 0.019727435 -0.052995212 -0.029710382 -0.004708145 0.031727534 -0.039065022 -0.015727285 -0.034531087 -0.019208755 0.033301506 
0.32714814 -0.3969257 -0.47917154 0.1809385 0.5495831 -0.024279011 0.041427337 0.029479636 -0.41335416 -0.13158922 -0.03915652 0.2657214 0.2678209 -0.63380873 -0.0012335667 -0.27193943 0.2000052 -0.40906298 0.03928634 -0.04399676 0.0024590266 -0.22767408 -0.024906818 -0.030759858 -0.1836081 0.022650335 -0.45346656 -0.48661122 -0.14461698 -0.5816013 -0.51046413 0.002179829 -0.29701674 0.010251767 -0.063627765 -0.28319573 -0.24474774 -0.012122784 -0.112786695 -0.007155389 -0.346166 0.029512007 -0.0017755933 0.025917592 -0.3323137 -0.024674965 0.19274127 -0.33820355 0.26284325 -0.060866605 0.024389723 -0.44309276 -0.057912104 0.22473386 -0.03328857 -0.029650511 -0.28445846 0.038587946 -0.044113543 0.18686278 -0.47761098 0.05932688 0.18057832 -0.047448404 
0.21668002 0.0726303 0.047054704 -0.033666447 0.08978702 -0.03601753 -0.040534552 0.030863186 0.05931191 -0.028686611 -0.0053724265 -0.14518341 -0.09415494 0.122643925 0.033471543 -0.045378953 -0.23369977 0.0023175196 0.040104136 0.020916067 0.0062284465 0.20532225 0.025508218 0.0033477969 -0.008772282 -0.05375775 0.016571792 -0.0212935 0.061365027 0.071398176 0.12505735 0.017199153 -0.03538564 -0.023851689 -0.054615542 0.16349442 0.038354635 0.01600507 -0.02255931 -0.0392882 0.10484682 -0.043024104 -0.046526942 -0.00537509 0.023793513 -0.053948574 -0.08881054 0.10402243 -0.00021621486 -0.0069023366 -0.031043446 0.11821706 -0.0003419724 -0.16136123 0.020708416 -0.35688406 0.04476195 -0.0070250197 -0.05339438 -0.19593929 0.084668666 -0.18307571 -0.21629344 -0.023300504 
0.039672304 -0.049569957 -0.033437513 -0.039768614 -0.010832276 -0.0006528385 -0.05185155 -0.011175986 -0.005837396 -0.05149196 0.041935947 -0.00090732053 -0.0500018 0.03236663 -0.026139347 0.05574223 0.00592909 0.025213491 -0.035547458 0.04881608 0.04541679 -0.019622639 -0.0059283376 0.036252093 -0.054808155 0.031926755 -0.04404601 0.050851908 0.03982139 0.01768737 0.051155705 -0.044607036 -0.036683 0.05401801 -0.046942912 0.046215232 -0.0528593 -0.025547605 0.04975346 -0.031366237 -0.037885904 -0.005568795 0.008841399 -0.04862121 0.054169383 0.04731528 -0.038175702 -0.00068835914 -0.020547412 0.04602788 -0.051336788 0.03220581 0.027251866 -0.047773007 -0.027822986 0.015515622 -0.0076465346 0.0039566383 -0.027501546 -0.039400317 -0.02512549 0.011778582 0.028178569 0.034481708 
-0.14578034 -0.37892988 -0.5893584 0.42448032 -0.0655893 -0.046614006 0.02068945 -0.017735166 -0.40215144 -0.26902056 -0.03985849 -0.2678463 0.58886296 -0.34930813 -0.00094638765 -0.053193446 0.8187788 -0.5181044 -0.04057532 0.042583276 -0.05664971 -0.35939533 0.016682098 -0.04590162 0.10241529 -0.02193669 -0.021612454 -0.046665475 -0.389128 -0.13416547 -0.20740335 -0.0008190122 0.009208062 -0.027745297 -0.039816998 -0.34419253 0.040182766 0.022757206 0.38680092 0.025141349 -0.32580927 -0.026597435 0.050051566 0.040390328 -0.24082811 0.014194895 0.14703465 -0.6298904 0.017492257 0.0053247865 -0.042205416 -0.19109635 0.02706051 0.43385643 0.010857008 0.43067014 -0.23751722 0.01880778 0.010662166 0.4645472 -0.2276865 0.017826274 0.3146303 0.018138098 
0.2970309 0.028363142 -0.089166865 0.050854143 0.28758967 0.020623295 0.02945421 -0.05949387 -0.017094677 -0.06331178 0.020209977 -0.027289076 0.005468894 -0.13140343 0.008045262 -0.15034482 -0.051035084 0.0027544454 -0.049266316 -0.05215886 0.07932802 0.12181517 -0.02928557 0.045917463 -0.020218888 0.016447993 -0.0013267293 -0.057944816 -0.03570241 0.045426298 0.071005926 -0.027033193 -0.010441885 0.023537913 -0.038172334 0.16440271 -0.0035644711 -0.026262322 -0.018650362 -0.021265732 0.10991 -0.050481506 -0.064047955 -0.060144037 -0.029585797 -0.0036539957 -0.04743604 0.0062747635 0.21295652 -0.034540284 0.040032275 0.074058995 -0.05691334 -0.06405487 0.024010887 -0.44293025 0.01596133 0.038212102 0.0059514246 -0.14446014 -0.027159685 -0.132279 -0.21862096 0.03334001 
0.17350814 -0.02163919 -0.061575253 -0.07211229 0.07207041 0.013082835 -0.039590035 0.031016653 -0.05286186 -0.0956184 0.029910637 -0.18765637 -0.09906661 0.14699331 -0.03576466 -0.12434627 -0.28884497 -0.0030925164 -0.0045661875 -0.003910452 -0.110457554 0.17133643 -0.039197702 0.0049382155 -0.055048022 0.014432905 -0.01947637 0.034507878 0.100296676 0.10384913 0.06418293 -0.035848465 -0.08917306 -0.028466573 -0.03251368 0.22666843 -0.05855979 -0.046075467 -0.119446464 0.0057791704 0.0021801 0.02968219 0.021627557 0.008498041 -0.07986506 0.008949423 -0.078232825 0.09940619 0.06521346 -0.028466191 0.02997048 -0.019273229 0.028712744 -0.16767809 -0.04391804 -0.2997476 -0.017001588 -0.04261963 -0.015381908 -0.2472943 -0.011165541 -0.20261818 -0.14863236 0.044593535 
-0.23720628 -0.6054132 -0.8793543 -0.016784605 -0.07004573 -0.015713433 0.050511092 -0.026600046 -0.8279745 -0.17406033 -0.0027681424 -0.36724445 0.1393335 0.62458766 0.055120733 -0.4281584 0.46250662 -0.6887659 -0.017921833 0.043264475 -0.69614935 -0.44352335 0.04298749 0.030607782 -0.15923586 -0.017761942 -0.5227529 -0.3129294 -0.52023023 -0.001879301 -0.47995096 0.017149642 -0.2825007 -0.00024856627 0.041507483 -0.25661644 -0.3854805 0.008706737 -0.12491241 0.028320838 -0.6029034 -0.039824884 0.052267116 -0.041593626 -0.7003073 0.017765436 -0.16556886 -0.65467006 0.15409942 -0.032741304 -0.055590443 -0.54272777 -0.03412064 -0.12885155 -0.013805997 0.50839317 -0.54457176 -0.021075862 0.03761532 0.015200639 -0.74752903 -0.5750072 -0.088467084 -0.048113376 
-0.18820697 -0.47897995 -0.6966677 0.5171309 -0.25116497 -0.051318686 0.015650319 0.03692901 -0.4857389 -0.22409333 -0.02257175 0.0045939377 0.8554509 -0.32761917 0.0524258 -0.22050089 0.85748106 -0.57008815 0.0028668714 -0.035539802 0.13998608 -0.42624575 0.02878515 0.0077121095 0.10759002 -0.058389634 -0.3447558 -0.40476027 -0.062088404 -0.44894052 -0.3893453 -0.035163652 -0.20210893 0.04193988 0.01097242 -0.45710894 -0.17797934 -0.012336262 0.32417738 -0.027489038 -0.46531612 -0.038687665 0.01365434 -0.025101462 -0.2843182 0.00972619 0.74106425 -0.6551976 0.24805818 -0.03128369 -0.0043794904 -0.44894618 0.0052221883 0.7223028 -0.057521604 0.8727103 -0.4124836 -0.015070032 0.011928723 0.7930821 -0.52262855 0.49156716 0.6576737 0.011206811 
-0.32721072 -0.546727 -0.88280725 0.09947676 -0.11514248 -0.003539679 -0.0013601878 -0.05922733 -0.78384537 -0.29122102 0.002906924 -0.18729047 0.21693815 0.63410056 -0.036037907 -0.3400508 0.4108759 -0.75452715 -0.0747323 -0.009321855 -0.6808345 -0.48215607 0.0035904453 -0.016094321 -0.14783871 0.029379103 -0.5692349 -0.27323407 -0.516973 -0.058367584 -0.36680797 -0.036457393 -0.2514335 -0.03988164 0.0026569078 -0.4155046 -0.319457 -0.0047694873 -0.036093693 0.028403496 -0.62027574 -0.034466106 0.011961554 0.008337533 -0.7092731 -0.041731764 -0.08843947 -0.5440708 0.082164615 -0.034178913 -0.03794641 -0.46536344 0.015386604 0.064946435 0.036582902 0.67349863 -0.47096902 -0.061703365 0.032577544 0.15248007 -0.68289566 -0.47910416 0.036818918 -0.010238706 
-0.030629333 -0.005927779 -0.005942058 -0.016740594 -0.035125062 0.03125934 0.05065943 0.022977512 -0.049139906 0.016737256 -0.044816736 0.015357647 0.049546104 0.019627165 0.033415575 -0.015263546 -0.033453092 0.0076928474 0.009843048 0.046784837 0.03167787 -0.049970135 0.031724174 0.026778828 0.023581978 0.043519128 -0.02464778 0.034407254 0.025758278 0.02509242 0.027077045 0.028884653 -0.020948634 -0.039067887 -0.007160045 -0.042965073 0.0432865 0.02771229 0.00023985282 0.042389784 -0.026861046 0.045913976 0.007196676 0.009779643 -0.01289646 0.021357808 0.043515112 0.037597504 -0.026489737 0.0073847584 0.021029431 0.021741938 -0.024497975 -0.022355653 -0.026255975 -0.020377997 0.04293393 0.015679155 0.03892112 -0.03668217 -0.020070918 -0.032951318 -0.037516482 -0.013484575 
0.22380726 -0.3890889 -0.54368085 0.08992549 0.57364345 0.0035132435 1.1800496e-05 -0.01666754 -0.5305278 -0.05899447 0.04343108 0.31210667 0.18719652 -0.2738667 0.025392672 -0.31999066 0.16892132 -0.5494328 0.013257775 0.030488065 -0.16251358 -0.33732018 -0.003941589 0.011862907 -0.25341433 -0.030592775 -0.55719054 -0.47007126 -0.20929119 -0.47928554 -0.6124116 -0.014798435 -0.31746164 0.022672454 -0.023448864 -0.24112542 -0.3393042 -0.026599502 -0.08897725 -0.060239453 -0.37541166 -0.009676982 -0.037454583 -0.022185318 -0.48079494 0.04896596 0.09576963 -0.5174705 0.35457414 -0.046462692 0.0036464233 -0.5275316 -0.057298906 0.100018665 -0.019454299 -0.11832827 -0.3953994 0.0066361274 0.04401624 0.051804617 -0.6092457 -0.15057144 0.11124544 0.024722489 
0.09624692 0.074660584 0.030603623 -0.04948858 0.014554419 0.023354908 -0.002078034 0.0051625627 -0.0034072855 -0.018323556 0.012016905 -0.20209816 -0.12653986 0.16377169 0.0050860713 -0.057975493 -0.18049124 0.05915369 -0.024521453 -0.05337567 -0.023182457 0.18250684 0.040934313 -0.049696308 -0.024377732 0.035492852 0.0538731 0.021550866 0.10326929 0.17351115 0.09014935 -0.051073346 -0.000801389 -0.04771318 0.030813824 0.13905403 -0.026217597 0.020829666 0.011936721 0.00029869398 0.090303816 -0.024045315 -0.04949246 -0.04013558 -0.04016875 -0.025698485 -0.054775152 0.08160712 0.009187118 -0.06263488 -0.059014007 0.07998277 0.0026487743 -0.11853426 -0.015571228 -0.21237724 -0.0073290537 -0.004227988 0.042400055 -0.12077754 -0.024682773 -0.13311012 -0.17295113 -0.0006802562 
-0.013598349 0.020352285 0.030984726 0.019554663 -0.029332876 0.01808681 -0.053995363 0.01743314 -0.012883559 -0.035118006 0.054708954 -0.013877727 -0.025024522 0.05067617 -0.051175017 0.01859041 -0.008251004 -0.042972863 -0.032915793 0.015510146 -0.024682041 -0.00034669787 0.028860945 0.05051076 0.005076494 0.035847027 0.05047184 0.023222435 0.054737102 0.005978234 -0.009292487 0.0026151575 -0.012224507 -0.009173904 -0.023832794 -0.025846105 0.02036294 -0.02683112 -0.034232035 0.01721714 -0.017068028 0.0045887604 -0.037691876 -0.016743418 -0.013435509 -0.032605372 0.017430637 -0.05485749 0.023918185 0.017010119 -0.026231723 -0.0060853735 0.009084087 -0.043046825 -0.034431122 0.012310002 -0.0034417324 0.020059366 -0.03282863 -0.032401733 0.0070441775 -0.024188336 0.050045136 0.0011595935 
-0.31134653 -0.29582974 -0.5732971 0.685301 -0.2070716 0.0074868337 -0.045965448 -0.021636823 -0.2484577 -0.26339978 -0.02014031 -0.3178217 1.0159693 -0.8530578 0.046201956 -0.07417419 1.0326191 -0.37556714 -0.040843736 -0.044285215 0.45886087 -0.3368874 0.031077156 0.018665787 0.34767398 -0.027266802 0.3006875 -0.1088806 -0.41452733 -0.18143141 -0.2017356 -0.0034840228 -0.056058783 -0.02498619 -0.0055402545 -0.4244408 0.18551373 0.028022584 0.6688684 0.025386881 -0.2031135 0.008046427 -0.037572473 -0.009233959 -0.053768974 -0.018869743 0.5230469 -0.67556536 0.06845564 -0.029331107 -0.019921647 -0.21269472 -0.022453342 0.81280756 -0.028775277 0.53677964 -0.22729886 -0.017386738 -0.013280195 0.8654088 -0.104233116 0.56411004 0.5355175 -0.05541649 
0.19446896 0.0074748867 -0.16861509 -0.027009647 0.3039721 -0.06423984 0.042938057 -0.0003161097 -0.12503284 -0.03924267 -0.010667443 -0.07780345 -0.16822124 0.19155829 0.012322461 -0.21457647 -0.22152875 -0.11510007 0.021023553 -0.014504044 -0.19164515 0.107159816 -0.015081783 -0.0030782416 -0.13864702 -0.0013978214 -0.04983425 -0.021766128 -0.09361489 0.1583011 -0.01672934 0.016559133 -0.09980718 0.027957326 -0.062338583 0.11348445 -0.032733988 0.04586619 -0.07757335 0.038559575 0.029781139 -0.066623785 0.035673212 0.050315037 -0.13422659 -0.014073734 -0.26789293 -0.009835989 0.19830298 0.00059921574 -0.023138057 0.016184207 0.0056457147 -0.24875657 -0.005685742 -0.41445687 -0.05428288 -0.0045411624 -0.04198844 -0.3164161 -0.045424182 -0.3406506 -0.26825216 -0.010769152 
0.10774466 0.044465378 -0.042789146 -0.102940954 -0.030594008 0.025984349 0.04365045 -0.03436765 -0.019353043 -0.03192691 0.02801586 -0.18802395 -0.123320796 0.21602131 -0.051644817 -0.16783755 -0.2084431 -0.05766536 -0.024465898 0.0043982146 -0.019141011 0.10296042 0.01834707 -0.05503091 -0.02370148 -0.04758636 0.010728166 0.04290776 0.11047453 0.08642194 0.0474562 0.022377124 -0.021006988 -0.0036368915 -0.0005678164 0.12369211 -0.059299156 0.013872951 -0.050464153 0.026726682 0.07771512 0.030690974 -0.0010179366 -0.06967181 -0.036324743 0.0026673244 -0.017905949 0.048047055 0.016936114 0.034821123 0.010701282 0.020354042 0.008539433 -0.19887666 0.023533037 -0.22093505 -0.08079391 0.036094546 0.014117629 -0.0995319 0.018781168 -0.12372359 -0.15581383 0.011419563 
-0.26889524 -0.2939196 -0.70351446 0.021759016 -0.09395089 0.023905655 -0.0037016105 0.045122754 -0.59564227 -0.1820943 0.047090765 -0.30052453 0.096648976 0.4255783 -0.011943098 -0.2488996 0.2610019 -0.51703805 -0.058180787 0.013657513 -0.66247445 -0.2351249 0.047096886 -0.03413882 0.03230992 -0.036265757 -0.3204673 -0.108150706 -0.5686174 0.039005946 -0.054945853 -0.005720743 -0.031885147 0.04336246 0.02559765 -0.13084726 -0.10457752 0.013735104 0.014636651 0.011514168 -0.4640255 -0.014625464 0.024755817 0.039220616 -0.5855903 0.011603584 -0.30019367 -0.34678718 0.074442655 0.020413706 0.024059603 -0.3022829 0.048228968 -0.2626433 -0.010247971 0.235964 -0.27513662 -0.04670122 0.015555305 -0.032441825 -0.44767258 -0.5201671 -0.18863335 -0.055680383 
