-0.44108766 0.59742314 -0.6912311 0.21384485 -0.5434576 
-0.46579593 -0.8638619 0.5692585 -0.5490838 0.6267631 
0.12111153 -0.9711889 0.22349422 -0.0447457 -0.02693455 
0.3984719 0.10644275 -0.19031073 -0.1471531 -0.36241075 
0.1666709 0.27211344 -0.282747 -0.5497219 -0.8824031 
0.21858409 -0.45002785 0.2257967 -0.73392063 0.2715265 
0.19500795 0.26208255 -0.6272861 -0.77185404 0.02659428 
-0.04248872 -0.37957484 -0.56711596 -0.7600011 0.92622435 
-1.0700225 -0.7251723 -0.32616395 -0.34184268 0.6872356 
-0.8878387 -0.14155088 -0.13581194 -0.41130528 0.9140493 
0.34471497 0.22859281 -0.4468791 0.18639053 -0.0091976235 
0.2644717 -0.5120541 -0.46944508 0.3031589 0.11561865 
-0.6971951 0.47350183 0.24845597 -0.4710975 -1.2194571 
0.3438008 -0.011445815 -0.28526995 -0.2780766 -0.31170467 
0.30289635 -0.19333485 0.16121122 -0.5291356 0.18665418 
0.47161925 0.35851684 0.10471986 0.24005361 -0.5829395 
0.29579288 -0.4485023 -0.46757856 0.26443636 -0.31707555 
-0.22710514 0.31945053 0.000174556 -0.27652618 -0.36775425 
0.07579066 -0.57719314 0.18977825 -1.0107044 0.40293363 
-0.85238373 -0.22159424 -0.63515717 -0.43088898 1.2023529 
-0.8840181 -0.37879187 0.8748603 -0.110671684 -0.34263805 
0.40633145 0.28429723 0.27945578 -0.25086963 -0.16401653 
-0.459393 0.9327658 0.1913226 -0.48728088 -0.35618767 
0.37823412 0.21257018 -0.027647525 -0.64586806 -0.0672948 
-0.90020555 -0.5285408 0.7273411 0.2500411 -0.40438408 
0.24397826 -0.32123068 0.27243888 -0.14584136 -0.46668112 
-0.7377522 -0.35668874 -0.5802535 -0.19326106 1.0924393 
0.37188888 -0.39537054 -0.24840827 0.054698568 -0.09160922 
0.28317174 -0.13575394 0.38095403 -0.19094683 -0.6285435 
-0.10670193 -0.6603337 0.31604937 0.7953374 -0.9194057 
-0.64759755 -0.32459185 0.3413209 0.88593096 -0.8377441 
0.33086792 0.17141296 -0.48975432 -0.49841344 0.01203021 
