-0.2475424 0.36447173 0.22693966 -0.40208974 -0.57137966 0.3077765 -0.25383288 -0.21594144 -0.034938008 -0.25702235 -0.12608133 -0.1989451 -0.25056514 -0.45587555 0.06584786 -0.5960504 -0.32384476 0.078057826 0.5783455 -0.27446815 0.35914475 -0.2819586 -0.48972088 -0.32315686 0.032897685 -0.110619985 -0.11425412 0.0052949623 -0.37541986 -0.35171932 -0.023525843 -0.29132423 
0.035326976 -0.3078411 0.04072254 0.25657892 0.35956475 -0.17899016 0.10860173 -0.51473737 -0.43105873 -0.60937613 0.23565528 -0.2271046 -0.10269012 0.112650886 0.22751987 0.09972314 -0.054926906 -0.18443246 -0.20076102 -0.47427455 0.30942968 0.3137472 0.18992664 0.25172433 0.2587463 0.24149786 -0.48908108 -0.033616457 0.2814161 -0.22218792 -0.4642343 0.23684621 
0.08868092 -0.0930832 0.12878509 0.22061548 -0.15112351 -0.13064754 -0.2687765 -0.5392177 -0.8511349 -0.7792769 0.14335684 0.2732078 -0.16572039 0.06679963 0.061138798 0.03265759 0.31937614 -0.061876573 -0.1543782 -0.8766994 -0.013792637 0.12955157 -0.3711981 0.0146502545 0.30880225 0.30492344 -0.6439378 0.06618083 0.2442359 0.31040567 0.299694 -0.16130455 
0.17843899 0.28717571 -0.31160772 0.00569965 0.22402595 -0.10267614 0.48029485 0.35235763 0.15480433 0.18134129 0.059996527 0.09100482 0.05613715 0.120690696 0.3104652 -0.13164803 0.20181033 -0.23979843 0.36442253 0.25649133 -0.14919102 0.07493737 -0.035501238 0.14358655 -0.107419744 -0.27717003 0.5612682 -0.00038501987 -0.03187635 -0.45007253 -0.3760093 0.3845529 
-0.012994524 0.11007552 -0.16588636 -0.5474445 -0.21782017 0.02761676 -0.08003536 0.06794265 0.041385714 -0.03775546 -0.21618763 -0.30449122 0.30851635 -0.59261316 -0.36491582 -0.51148725 -0.60382855 0.059374 0.019877825 -0.06514669 0.3125895 -0.14782143 0.29280326 -0.47714362 0.3724116 0.01750947 -0.07764024 -0.6522656 0.040327296 0.31469834 0.33154815 -0.32207736 
-0.13064939 -0.07619313 0.05792472 -0.088106446 0.23880781 0.12765309 0.16299973 0.15639392 0.05091612 0.07862582 -0.16237552 0.22086076 0.10317416 -0.20942824 -0.17614926 -0.11337209 -0.15956765 0.17446335 -0.08635899 0.145087 -0.19637181 0.042799182 -0.12305758 -0.056483097 0.22646783 0.23625039 0.1365524 -0.09129625 -0.1708404 -0.059952307 -0.11679388 0.052610967 
0.047745824 -0.14229341 0.065491274 -0.042523794 0.04386353 -0.062344674 -0.18418868 -0.22032563 -0.017037958 0.032192294 0.21102802 -0.07263415 0.124016844 -0.047703367 0.04006782 -0.09379834 0.12520854 -0.050551575 -0.014690392 -0.14981425 0.12559012 0.25594828 -0.2270406 -0.16530128 -0.0036116047 0.010431425 0.03946771 -0.20797743 -0.1413763 -0.054894954 0.18677165 -0.22091164 
-0.017373929 0.10405147 -0.22021058 -0.20128864 -0.1775887 -0.11395292 0.15702513 -0.051030472 -0.15398483 0.11984785 0.017594403 0.0818411 -0.078694515 -0.118520916 0.13915877 -0.21836488 0.21709688 -0.24363035 -0.24349913 0.21807362 0.20722604 0.14124708 0.20776455 0.09168008 0.17358914 0.17750952 -0.24290405 -0.07647426 -0.1353083 0.23533577 0.142715 0.22952652 
-0.48481807 -0.1790247 -0.044871513 0.0998138 -3.6616082e-05 0.33372897 0.00082557666 -0.45111188 -0.50268763 -0.4741444 0.16732734 0.24792166 -0.40483224 0.09074271 0.2996496 0.06315093 0.05188236 0.109536275 -0.10224247 -0.3731787 -0.04107567 0.31740278 -0.18445522 0.3235154 0.0557543 0.38875747 -0.32506517 0.2668453 0.33983606 -0.05535549 -0.1527755 0.1964292 
0.3845625 -0.03631628 -0.24758267 -0.1513617 -0.16040665 -0.3495385 0.027727177 -0.14723969 0.11584689 0.046001147 0.18665905 0.3353398 -0.0834338 0.03331855 -0.099169776 -0.05209176 0.09364935 -0.03367841 -0.3639057 -0.04418552 -0.0803872 -0.13959911 0.035947133 0.09250602 0.21562645 -0.015342639 -0.06997496 0.041680247 -0.20864849 0.34476113 0.21747111 -0.09167528 
-0.23049143 0.054156024 0.165834 -0.10300687 -0.097370625 -0.2196267 -0.08421009 -0.009989572 -0.16410798 0.15783255 -0.0152546 -0.24051009 -0.20740242 -0.032890055 -0.08340709 0.15062687 -0.23050696 0.18407066 -0.23150337 0.054573655 -0.23090045 0.24731451 -0.18016617 0.20883954 0.12245184 -0.06809407 0.19344501 0.19634348 -0.1253467 0.03972723 0.12695964 -0.124895066 
0.12956885 0.4737244 0.7037274 -0.30991763 -0.5066998 0.39923373 -0.4798536 -0.4132108 0.014058563 0.121092826 -0.4742247 -0.41098264 0.8461645 -0.3202968 -0.093984924 -0.29167378 -0.43914682 0.11388334 0.2217058 -0.17036466 0.75444496 0.11948854 0.2063618 -0.63501793 0.76359844 0.6777853 -0.1575549 -0.50038064 0.6083911 0.96862954 0.5386247 -0.5567456 
-0.16631831 0.14080797 0.05487287 0.10723555 -0.032982513 0.14298728 0.3753644 0.15016472 0.1054602 0.14201686 -0.104796626 0.112793066 -0.01063176 -0.1387113 0.24321978 -0.0501095 0.029505357 -0.09994556 0.23513725 0.19503772 -0.08032174 -0.038784474 0.022801664 0.3453917 -0.08449294 0.17538445 0.2700289 -0.15492253 -0.0065665715 -0.3612609 -0.48660505 0.2240464 
0.43228352 0.4200253 -0.19233638 -0.638411 0.23820807 -0.1775697 -0.05697229 -0.309457 0.29261926 -0.078852795 -0.42229706 -0.5016271 1.127691 -0.70190185 -0.4560588 -0.24750255 -0.59191877 0.025288936 0.1533596 -0.36671034 0.5360503 0.17203707 0.87414855 -0.22509503 0.7041756 -0.17587464 -0.16092536 -0.51103705 0.010709003 -0.097697444 -0.077345595 -0.28410524 
0.22483955 -0.12653828 -0.042205032 -0.23342425 0.03613395 -0.059045076 0.17016797 -0.0651983 -0.18632238 -0.08568436 0.2448709 -0.008243927 0.034970645 -0.12536779 -0.077872746 0.1499139 -0.07817228 0.16163962 0.01322394 -0.16389543 0.04700377 0.20470358 0.02460535 -0.049233597 -0.09822649 -0.1350125 0.11149883 0.14899856 -0.19091114 -0.1739188 -0.16768086 0.024618708 
0.08548361 -0.6250832 0.20766154 -0.012675367 -0.1029323 -0.10462821 -0.084031194 0.020428816 -0.87679225 -0.7955394 0.32652605 0.40917382 -0.389211 0.21399032 -0.25991118 0.23485678 0.48022214 0.12944372 -0.07233717 -0.8281661 -0.3906385 -0.061428957 -0.38953122 -0.046253353 0.082225315 -0.0063611446 -0.28706646 0.5188842 -0.10506027 0.4506487 0.15092999 0.15689956 
-0.17267317 -0.12414077 0.21994422 0.0039358614 -0.052742697 0.36425376 0.7694294 0.57865524 0.31463864 0.19783495 0.4484027 0.12954952 -0.10241347 0.19694456 0.0773097 -0.17196783 -0.079216845 -0.051176477 0.18525471 0.25286368 -0.41200656 0.06074439 -0.006652549 0.148172 -0.6034965 -0.45956424 0.19601466 0.19254176 -0.2650656 -0.36253935 -0.40056926 0.37316644 
-0.16301765 -0.18557054 0.11166365 0.055524845 0.3264956 0.23468609 0.2569881 -0.46075678 -0.49892354 -0.61841655 0.043996383 -0.09508822 0.16059633 0.11281321 0.31072965 0.41675383 -0.17050791 -0.08038861 -0.032388024 -0.8026128 0.082007505 0.26957625 0.037790515 0.17545485 0.12584281 0.20107143 -0.45875928 0.07341665 0.38915485 -0.130419 0.067596085 0.015572252 
0.15656412 0.012371362 -0.0047546066 -0.04664531 0.009873344 0.22816193 -0.049726803 -0.09074056 0.027027821 0.017606633 -0.17690516 -0.10275068 -0.2187011 0.12487101 0.20836627 -0.13841301 -0.07130346 -0.23470719 -0.15700799 0.2200024 0.21239033 0.1835533 -0.004151647 -0.062446263 0.12008846 0.09721729 -0.080462255 0.0735565 -0.1858213 0.04702354 -0.17856798 0.06432826 
-0.07458988 0.12490138 0.2394089 -0.16733874 -0.14560623 0.0020164133 -0.2532147 0.102743566 0.09981896 0.12772124 -0.11422157 -0.16462086 0.09792474 -0.1840991 -0.101958714 -0.12267994 0.11523777 -0.11103582 -0.13301146 0.008951547 0.23983835 0.20006154 0.16235562 0.14175731 0.14366306 0.05872823 0.06010946 0.10246009 0.2093957 0.021573126 -0.12105025 0.21720189 
-0.35037246 0.116920345 0.1553211 0.14456148 -0.102310784 0.25057474 -0.10955105 0.15643051 0.047609523 0.04947299 0.014242915 -0.11548184 -0.24421918 0.14932437 0.45182493 -0.061567567 0.07288495 -0.2341306 0.41589376 0.07403098 -0.06733108 0.0022623844 -0.44506103 0.15991877 0.047921903 0.07300307 -0.016713265 0.11204928 0.18509376 0.066942975 0.2053767 0.23148835 
0.07892665 -0.15626475 0.023078283 0.14708818 0.2656723 -0.14372946 -0.21976243 -0.6519747 -0.48437294 -0.18613124 -0.010094742 -0.1825654 0.009868312 0.114774145 -0.21638884 0.26395506 -0.10026061 -0.18389796 -0.070783496 -0.57709223 0.053913858 0.22521307 0.1456694 0.30130836 0.04011711 0.34362474 -0.5297835 -0.031516 0.33097088 -0.052818023 -0.1612318 -0.029648827 
0.17607011 0.1740642 0.14262232 -0.19830936 0.21982966 0.24886367 0.041585438 -0.24216595 0.22824527 0.04211163 -0.03853845 -0.19891995 0.19664057 0.15901807 -0.11854286 -0.17847952 -0.039426975 -0.17038427 0.2371412 -0.23412223 -0.042983383 0.085440084 -0.23686422 -0.09030181 0.09972017 -0.09303537 0.1644217 0.06770948 0.18637872 -0.14810719 -0.14806497 0.039834224 
0.121633306 0.21825984 0.015907552 -0.06665274 -0.03271561 -0.027799528 0.20526856 0.15522791 0.1868611 -0.18712953 0.15945162 0.10070291 0.05872497 -0.10936077 -0.043714907 -0.1018319 -0.17198141 -0.1899894 -0.0453938 0.20801182 0.074031085 -0.21959834 -0.08273679 0.19911675 0.24199888 0.17111023 0.17881346 -0.13555948 0.2283262 0.18177252 -0.14042692 0.066856176 
0.055115674 -0.38551497 -0.112139545 0.27403796 0.4095022 0.29729888 0.58117396 0.051999554 -0.34670565 -0.12407694 0.33318797 0.029197562 -0.45789918 0.24866529 -0.016819993 0.1502396 0.21158628 -0.038956746 0.10321207 -0.23145233 -0.61758846 0.088797726 -0.21061732 0.10586249 -0.667861 0.07184414 -0.02875555 0.2088538 -0.18437815 -0.2607036 -0.12805009 0.39439574 
0.11393656 -0.042130407 0.12015877 -0.23481576 -0.22641563 0.1268301 -0.012073111 0.119445615 0.21851908 -0.17238845 0.15202172 -0.017609032 0.2284128 0.18664062 -0.18210852 -0.17157786 0.21594757 0.079873085 -0.24797042 0.23488973 0.11602489 -0.09380084 0.0021774261 -0.17527385 -0.1839725 0.03457617 -0.08250571 0.109869026 -0.03472032 -0.23841245 -0.0066278125 0.06100413 
-0.26468223 -0.26949394 0.15454458 0.026106874 0.27981824 0.22514908 0.40626758 0.05441678 0.069242544 0.17091618 0.38873267 0.36775652 -0.44008 0.33425406 0.23838925 0.334375 0.36482334 0.07860474 0.05744856 0.19669461 -0.32969996 0.4229081 -0.062499315 0.16628762 -0.523634 0.30277988 -0.075229205 0.2160125 0.064228885 -0.610583 -0.4470925 0.06777204 
-0.08996252 -0.8413711 -0.100428715 0.1478139 0.095186844 -0.17169777 0.23346198 0.09304951 -0.4583604 -0.6318821 0.46774322 0.33971542 0.034379262 0.042092647 -0.15577 0.30231607 0.08632765 0.114990674 0.013777444 -0.77290833 -0.70343214 -0.07782996 -0.061810575 -0.056611337 -0.24612787 -0.3757804 -0.28159425 0.15719664 -0.23958828 0.16841412 0.18695123 0.27588075 
-0.3456296 0.35616386 0.17521226 -0.012910457 0.11371206 0.32350263 0.18386436 -0.26745066 0.16649942 0.07458449 -0.00106886 -0.028392004 0.3232809 0.1420184 0.3449337 -0.045725618 -0.008650087 -0.23758966 0.1392848 -0.21870035 0.28657335 0.58295345 -0.1019189 0.29316714 0.21635875 0.22746924 -0.10343403 -0.03299826 0.35147697 -0.32153964 -0.16630846 0.08341694 
0.30371153 -0.13554269 0.0044380235 0.13401423 0.7790736 0.020610375 0.7211003 -0.7533714 -0.13794327 -0.16369183 0.28693888 -0.17174718 0.4601559 0.07966226 0.05522025 0.45077798 -0.071526855 -0.24526739 -0.07223084 -0.4892952 -0.007337644 0.77377045 0.350387 0.7839316 -0.23402578 -0.024393255 -0.46270183 -0.0041470835 0.0559628 -0.20231473 -0.577084 0.3238663 
0.15396774 -0.71801126 -0.05839301 0.30838677 0.13498177 -0.06957361 0.5137059 0.08222245 -0.74651885 -0.8858461 0.36860555 0.047355138 -0.051125083 0.17220515 0.11362298 0.08472573 -0.14064126 -0.19494776 -0.06569882 -0.80973893 -0.37824932 0.162474 0.18265037 -0.011539395 -0.39605895 -0.29814684 -0.012855978 -0.09328368 -0.0736806 -0.25663176 -0.22560081 0.20770338 
-0.19052657 0.20392315 0.05463676 -0.01604125 0.074277 0.048630692 -0.0533675 0.13981706 -0.040484805 0.21323076 -0.05932065 0.15247475 0.094119295 -0.15353565 -0.09137111 -0.05905701 -0.20715228 0.21607587 0.22175632 0.01936825 0.17754929 -0.16091481 0.02131748 0.0021201838 0.21115723 0.072108015 -0.24060172 0.20457718 -0.06528153 0.17808618 -0.048948947 0.041061886 
-0.068297446 -0.9817844 0.08867105 0.18168175 0.12104611 -0.06513693 0.041215386 -0.0043702917 -0.47395998 -0.51232266 0.36864144 0.27882951 -0.15380512 0.2428811 0.04106588 -0.0072441367 0.2885456 -0.19515395 -0.09012503 -0.7359701 -0.5938583 -0.21995334 -0.12161179 0.14405021 -0.10319162 0.17587274 -0.014337038 0.044948816 -0.051411875 0.16126019 -0.0068678185 -0.03139991 
0.18135163 -0.01974082 -0.20768386 -0.017320812 -0.07300305 0.013098749 0.0024642888 0.2466253 0.097530656 0.22578132 -0.062287144 -0.06778951 -0.18719839 0.24532203 -0.14683549 -0.007575333 -0.20598038 -0.2315501 -0.16562986 0.07044767 0.12582217 0.024180137 0.22417508 0.15300408 -0.15142699 0.17200302 -0.18393265 -0.08046991 -0.027915597 -0.11275369 -0.18323469 -0.19284746 
-0.073689826 0.019533917 0.0430816 0.013104323 0.027094731 0.040976774 0.11583781 -0.19733843 -0.0060502007 0.16730657 0.056094363 -0.009762564 -0.21747631 -0.17125575 0.14384452 -0.21630803 0.21637954 -0.24473193 0.13200548 0.1788269 0.05655872 -0.14650151 0.124583386 -0.17379948 0.13942158 -0.2131209 0.13693023 0.22002792 -0.20493756 0.14265223 0.24033931 0.15386729 
-0.09882594 0.043321505 -0.0138499085 0.32052082 0.47883356 -0.16061617 -0.040119126 -0.714961 -0.25314176 -0.43174574 0.030673182 -0.15121377 0.37760216 0.18766774 -0.17704578 0.31922615 -0.060342345 -0.0048917546 -0.20716618 -0.68983686 0.31130615 0.3583806 0.10335814 0.090059616 0.06375898 0.20348044 -0.8037112 -0.049111508 0.3070454 -0.18391968 -0.32305408 -0.078420565 
0.24717695 -0.28647098 -0.36310735 0.14911287 0.28576636 0.08365357 0.3282743 0.28899983 0.0395517 -0.032459825 0.37870267 0.1975544 -0.086656556 0.2261452 0.030432176 0.30549732 0.111390494 -0.25950068 0.041863643 0.36783165 -0.78463244 -0.03165485 -0.09601551 0.06567501 -0.5577257 -0.4074014 0.055549823 -0.053937495 -0.12584855 -0.27634075 -0.13870262 0.29319394 
-0.04312807 0.15958524 -0.021618051 -0.23553501 0.21927701 -0.051827867 -0.0523224 0.24193573 -0.01571313 0.028913701 0.13236669 0.18615606 0.098187335 -0.17824705 -0.18368787 -0.046467602 0.07530514 0.05714078 -0.002284639 -0.06477717 0.17794995 -0.094912395 0.15093051 -0.22632205 -0.11333305 0.01930151 -0.24149904 -0.07117042 -0.1619035 -0.011255238 0.13746396 0.25656888 
0.18547867 -0.21234344 -0.32564092 -0.07946724 0.19154118 0.1592263 0.64310986 0.47297156 0.11806781 0.20604187 0.17186601 0.17521985 -0.05561301 0.25436503 0.087297596 -0.1261761 -0.08497828 -0.081780374 0.0038983754 0.45210165 -0.36030754 -0.07552078 0.13643527 0.24513367 -0.3559588 -0.1668838 0.35237563 0.15308769 -0.047581937 -0.7636343 -0.60603654 0.3928756 
-0.072119266 -0.06722695 0.023326833 -0.14839078 -0.19108474 0.25076497 -0.22647287 0.1825847 0.15654291 0.006851781 -0.02447294 0.014913637 -0.03853907 -0.18956625 0.013436962 0.07391936 0.12785903 0.17470002 -0.21774128 0.238988 -0.23030622 -0.11261973 0.22072576 0.22671713 -0.22167358 -0.22594199 -0.200614 -0.14603531 0.07888585 0.097861186 -0.10294312 -0.059095897 
0.08540597 -0.22790956 -0.02264634 0.2864151 0.5208453 -0.15949798 0.19573516 -0.41859248 -0.45372775 -0.37260193 0.0383567 0.07286793 -0.25678405 0.008302307 0.10941391 0.41008306 0.13869599 -0.137148 -0.26002723 -0.385565 -0.055954162 0.51005006 0.02306313 0.2597801 -0.07773808 0.24584848 -0.5010575 0.14317371 0.0504606 0.102534674 -0.38123685 0.22989315 
-0.004288076 -0.16953044 -0.09946885 0.0333475 0.255206 0.11429546 0.10042707 -0.10177453 -0.098094314 0.13193321 0.2544336 -0.037123337 0.0647596 -0.21048643 -0.22102165 -0.10805725 -0.17931952 0.09874198 0.20437248 -0.010063766 -0.17993562 -0.09822958 0.03810167 -0.083592676 -0.162067 0.03182256 0.12298356 -0.19567071 0.15563597 0.051206116 0.08804581 0.16229124 
-0.18202268 0.1559656 0.20573862 -0.032532096 -0.19998579 0.10835084 -0.18909153 -0.13672023 0.07899282 -0.01194395 0.07367859 -0.17107035 -0.01821682 -0.008469084 -0.060484592 -0.20985208 -0.20135905 0.03455742 -0.246377 -0.19041735 -0.11363043 0.15961121 0.008144907 -0.16117811 -0.16657254 -0.17317826 -0.25177413 0.024966106 -0.11671521 0.036149547 -0.006295692 0.09019547 
-0.114662886 -0.19485319 -0.0031664968 0.20258673 0.034880757 0.12874097 -0.124166235 -0.14787668 -0.12590861 -0.07178873 -0.11993725 0.08539449 -0.1732563 -0.21627791 -0.107203014 -0.03565174 0.104020454 -0.011523247 -0.15958062 0.070182495 0.18132603 0.14659518 -0.11383293 -0.20995033 0.23288047 0.071952015 -0.09481192 -0.07324048 0.22174376 0.0032488795 -0.21634209 -0.14652242 
-0.11667251 -0.031653833 -0.038375426 -0.03790083 0.06266824 0.2004436 0.23539773 -0.051128376 -0.60618675 -0.35390362 0.22171505 0.06975121 -0.40532783 0.23910837 0.14363459 0.015225351 0.0146327 0.18975289 -0.12114134 -0.10647107 -0.17668185 0.44179788 -0.4592892 0.36660483 -0.13431875 0.2036522 -0.43503907 0.32584095 0.33191887 -0.20608059 -0.25524598 0.3277634 
0.1312042 0.11674394 -0.12830788 -0.13422756 0.23557556 0.23756883 0.0686339 0.2215761 -0.0042762347 -0.09504102 -0.24170437 0.14780925 0.23124571 0.035385374 0.08688366 -0.08864055 0.065707065 0.0030629006 0.059944417 -0.16066355 0.10342196 0.20471919 -0.08897833 0.054663688 -0.04457913 -0.24710695 -0.075873144 -0.19568413 0.11859083 0.1589305 -0.09355266 -0.09740909 
-0.46177244 0.11009693 0.2477542 0.20271216 -0.09334317 0.71778727 -0.08313912 -0.08263433 0.18383297 0.22973263 -0.08046017 0.006108177 -0.105181135 0.23427741 0.25899833 0.023427377 0.118529804 -0.0757991 0.56183064 0.15233932 0.2715038 0.046780735 -0.23191337 0.24844505 -0.017546345 0.26247883 0.1507835 0.033661723 0.04789338 -0.084116034 -0.084748745 -0.08574765 
0.19168396 -0.12320087 0.048901677 0.103549995 0.18085153 -0.06824889 -0.065987065 -0.630656 -0.6232273 -0.56927454 0.22658041 -0.16631603 0.048055463 0.18976818 -0.035685223 0.47172117 -0.05248919 -0.030175338 -0.14080563 -0.90432006 0.06947638 0.29609463 0.14710423 -0.007548531 0.11527127 -0.018344421 -0.6167115 -0.046076436 0.26057845 0.34681845 -0.00094622007 1.7709268e-05 
-0.1703569 0.063970886 -0.20470916 0.013443184 -0.366743 0.28744408 -0.1354717 0.34981605 0.0982996 0.043453205 -0.2196769 -0.009113386 0.09216196 -0.22230634 0.09301445 -0.14835122 -0.08972539 0.14595199 0.33774388 0.021284238 0.17207575 -0.23737948 -0.40373996 0.0023380416 0.012504274 0.022322299 0.17094399 -0.28675658 0.13064353 -0.017407272 -0.17847554 0.15288624 
-0.06736941 -0.17252424 -0.069839165 -0.14053242 -0.19846366 -0.018383738 0.12999548 0.19780114 -0.23358129 -0.20816657 -0.107921965 0.06995807 0.041007638 -0.040082004 0.02481717 -0.06512236 0.2286015 0.18946472 -0.20881677 -0.08808336 0.22746621 0.09838783 0.09244387 0.16104499 0.04188326 -0.07209347 0.04136132 -0.23428847 0.06479631 0.22375199 -0.06331525 -0.12582372 
-0.10157658 -0.1881342 -0.17307796 0.161292 0.24759857 -0.15244907 -0.12357584 0.09013763 0.07156639 0.11819654 0.055856183 -0.1971917 0.23229042 -0.16404696 -0.07787792 0.00020763926 -0.1144143 0.030152967 0.1581805 -0.112163834 -0.24845925 -0.13050659 0.050716016 -0.053706992 0.058423553 -0.057116408 0.23590758 0.16187997 -0.066025466 0.009849829 0.23048547 0.21829858 
-0.0110731395 -0.1774804 -0.07429236 0.32548103 0.30353847 -0.2871787 0.3349251 -0.17472258 -0.6605525 -0.44826823 0.28388074 0.053800557 0.047611557 0.008833015 -0.036713563 0.6157155 0.27826548 -0.041437533 -0.2340749 -0.43726224 -0.28369612 0.089152835 0.25030503 0.15871632 -0.31783673 0.19975014 -0.44703257 -0.04286524 -0.08411801 0.13077699 -0.0764553 0.16856126 
0.23242828 0.18393192 0.109511666 -0.023228241 0.023792202 0.12298158 0.012662238 -0.027779827 0.16031297 0.17641933 -0.21952443 -0.17742112 0.015850829 -0.2127569 0.11970536 0.053121395 0.13430594 0.0764825 0.0024215616 0.008311848 -0.0061027817 -0.06514862 0.052480597 -0.14128253 0.19540988 -0.19506654 0.07130613 0.1874018 0.23429206 0.13445814 -0.03518284 -0.13555819 
-0.42680785 0.18241215 0.21002397 0.18044607 -0.030675247 0.36310062 0.1318342 0.24797282 0.36756182 0.27380264 -0.015109202 -0.07332146 -0.023467904 -0.16923709 0.39584622 -0.029819567 -0.08157022 -0.18971665 0.4162606 0.030552156 -0.09653173 0.27901837 -0.34961653 0.29796234 0.03293323 0.09627636 -0.012475385 0.096319094 -0.037041858 -0.014183979 -0.07544929 0.09141963 
0.036298797 -0.23548539 0.19855778 -0.19715293 0.08848175 -0.21116793 -0.024526846 -0.11941993 0.1930446 -0.2512813 0.008529788 0.16028202 0.021246858 0.15121083 0.24865875 0.12811145 0.10065934 0.18590283 0.06543378 -0.06907541 0.02627218 0.008569071 0.16131571 -0.10540546 0.23831242 0.0778665 0.10806161 0.20952348 -0.15180166 0.11075768 0.02158892 -0.13097325 
-0.25133333 0.6414925 0.40469918 -0.5297182 -0.28950298 0.65464026 -0.44186664 0.4565022 0.31967783 0.38165042 -0.63220215 -0.11107124 0.2562229 -0.34555906 0.08357748 -0.36677828 -0.6208825 0.13624856 0.32054535 0.48874474 0.27850384 -0.42712438 0.7281307 -0.66296566 0.40479022 -0.2926891 0.5222405 -0.51265275 -0.32490683 -0.1282775 -0.48360687 -0.2997803 
-0.013021836 -0.8069973 0.05335885 0.030073082 -0.017909989 -0.14646259 0.11614292 0.0579413 -0.61818045 -0.7076032 0.17425969 0.30949983 -0.10992669 0.17696545 -0.111270025 0.29628763 0.37354445 0.056740656 -0.20043173 -0.8773835 -0.2547562 -0.12590916 -0.07132144 -0.1717964 -0.0888582 0.10522759 -0.4456638 0.20589826 0.11204048 0.24591127 0.26931083 0.0011256927 
-0.21051328 -0.21764717 -0.015523544 -0.080880456 -0.115980364 0.07167285 -0.23410602 0.01647805 0.036545902 -0.17532218 0.17599453 -0.22616991 0.14770696 -0.21692961 -0.1005443 -0.19284987 0.048968486 0.025581824 0.11514321 -0.1451144 -0.11078005 0.024660138 0.05159015 0.1481664 -0.21332031 0.18287882 0.21172088 -0.1457419 -0.20391585 -0.029456133 -0.06195476 0.20934229 
0.031337623 0.08245656 0.03905207 -0.0008104033 -0.02323747 0.08376258 0.1767045 -0.06737098 -0.21369351 -0.025974039 -0.107247606 -0.055472255 0.064592324 -0.08509893 -0.029263066 -0.14332421 -0.16663972 0.17844598 -0.1731815 -0.11115207 -0.20286171 0.15560319 -0.056848206 -0.24139632 0.19283932 0.041918613 -0.07867703 -0.18298428 0.008341629 -0.017634282 0.091590896 -0.23826855 
-0.40524632 0.03049864 0.035490323 0.07284839 0.028353326 0.430974 -0.11496679 0.28858086 0.24715182 0.3807128 -0.10538823 0.12654556 -0.131261 0.020791544 0.44179457 0.28407747 -0.008054101 0.041031603 0.35427412 0.3861823 0.03907387 0.28526187 -0.45679286 0.03359644 -0.02637903 0.113298714 0.26613027 0.35721818 0.31020245 0.02218535 -0.3828388 -0.0140379295 
-0.15448648 -0.47199094 -0.2219211 0.1113458 0.31605554 0.18852419 0.3549932 -0.0075068376 -0.4497906 -0.47209716 0.3554442 -0.040924534 -0.16783749 0.053062413 0.17849657 0.349346 0.35460493 -0.27400458 -0.3211248 -0.5827053 -0.35279828 0.23825206 -0.14233616 -0.015950844 -0.421393 -0.13787869 -0.532036 0.17226948 0.14263502 -0.09674431 -0.13047008 0.23411202 
-0.11431441 0.15139501 0.32166818 -0.10795876 -0.21969649 0.1911979 -0.009816776 0.28247795 0.03995731 0.053369235 -0.009055117 0.36395407 -0.34045678 -0.026979668 0.37235153 -0.042232428 0.2538925 -0.33877134 0.19853641 0.026266562 0.17408504 0.098852284 -0.5853877 0.11638343 0.21084654 0.21010211 0.31029347 0.24026136 0.078553334 0.33081484 0.32478714 -0.026537761 
0.017030617 0.27406764 0.72828686 -0.10555057 -0.036412038 0.4401862 -0.03797918 -0.103211984 0.32217038 0.29505193 -0.03491202 0.317181 0.0991739 0.082002416 0.514424 -0.054838628 0.2158128 -0.29673696 0.25754234 0.30413184 -0.050637722 0.044884283 -0.3148826 -0.14608037 0.003916085 0.2775879 0.032692064 0.2137323 0.20840773 0.14877276 0.27953768 -0.11320144 
0.16360888 -0.051340878 -0.07657498 0.11384552 0.05520015 -0.10518286 -0.18046048 0.14504594 0.0998699 0.0426755 -0.1484344 0.0054231402 0.04210803 -0.08583884 -0.1933064 -0.042893887 0.11969934 0.12080415 -0.12366973 -0.013876668 0.2289402 -0.13055743 -0.1639636 0.07851847 0.2382609 0.07268901 0.15661412 -0.24594787 -0.07532101 0.15306729 -0.13936396 0.20102619 
